{"learner":{"attributes":{"scikit_learn":"{\"_estimator_type\": \"classifier\"}"},"feature_names":[],"feature_types":[],"gradient_booster":{"model":{"gbtree_model_param":{"num_parallel_tree":"1","num_trees":"100"},"iteration_indptr":[0,1,2,3,4,5,6,7,8,9,10,11,12,13,14,15,16,17,18,19,20,21,22,23,24,25,26,27,28,29,30,31,32,33,34,35,36,37,38,39,40,41,42,43,44,45,46,47,48,49,50,51,52,53,54,55,56,57,58,59,60,61,62,63,64,65,66,67,68,69,70,71,72,73,74,75,76,77,78,79,80,81,82,83,84,85,86,87,88,89,90,91,92,93,94,95,96,97,98,99,100],"tree_info":[0,0,0,0,0,0,0,0,0,0,0,0,0,0,0,0,0,0,0,0,0,0,0,0,0,0,0,0,0,0,0,0,0,0,0,0,0,0,0,0,0,0,0,0,0,0,0,0,0,0,0,0,0,0,0,0,0,0,0,0,0,0,0,0,0,0,0,0,0,0,0,0,0,0,0,0,0,0,0,0,0,0,0,0,0,0,0,0,0,0,0,0,0,0,0,0,0,0,0,0],"trees":[{"base_weights":[-0E0,-1.5640593E0,1.3653185E0,8.2437277E-1,-1.6946203E0,1.8628991E0,5.321101E-1,1.6216217E-2,4.9333337E-1,-5.3742415E-1,-1.4736842E-2,5.618998E-1,-3.6E-1,4.0013117E-1,-3.1875002E-1],"categories":[],"categories_nodes":[],"categories_segments":[],"categories_sizes":[],"default_left":[0,0,0,0,0,0,0,0,0,0,0,0,0,0,0],"id":0,"left_children":[1,3,5,7,9,11,13,-1,-1,-1,-1,-1,-1,-1,-1],"loss_changes":[6.1062876E3,4.1699634E2,6.319817E2,4.3973347E1,2.0123315E2,3.1806885E1,7.3294476E2,0E0,0E0,0E0,0E0,0E0,0E0,0E0,0E0],"parents":[2147483647,0,0,1,1,2,2,3,3,4,4,5,5,6,6],"right_children":[2,4,6,8,10,12,14,-1,-1,-1,-1,-1,-1,-1,-1],"split_conditions":[9.342641E-1,-8.6159766E-1,-7.321666E-2,-4.66678E-1,2.356473E0,2.9320602E0,-3.0098635E-1,1.6216217E-2,4.9333337E-1,-5.3742415E-1,-1.4736842E-2,5.618998E-1,-3.6E-1,4.0013117E-1,-3.1875002E-1],"split_indices":[84,85,85,42,6,50,55,0,0,0,0,0,0,0,0],"split_type":[0,0,0,0,0,0,0,0,0,0,0,0,0,0,0],"sum_hessian":[2.8575E3,1.33175E3,1.52575E3,6.875E1,1.263E3,9.545E2,5.7125E2,3.6E1,3.275E1,1.19275E3,7.025E1,9.5175E2,2.75E0,3.8025E2,1.91E2],"tree_param":{"num_deleted":"0","num_feature":"86","num_nodes":"15","size_leaf_vector":"1"}},{"base_weights":[2.5431727E-4,-1.1803337E0,1.0270401E0,-4.5616665E-1,-1.4426079E0,1.455958E0,4.2196497E-1,8.2141556E-2,-3.3916748E-1,2.6883205E-2,-4.4595757E-1,2.9229447E-1,4.4568378E-1,3.5641834E-1,-1.7203821E-1],"categories":[],"categories_nodes":[],"categories_segments":[],"categories_sizes":[],"default_left":[0,0,0,0,0,0,0,0,0,0,0,0,0,0,0],"id":1,"left_children":[1,3,5,7,9,11,13,-1,-1,-1,-1,-1,-1,-1,-1],"loss_changes":[3.2540789E3,2.3650537E2,3.719967E2,1.6446872E2,6.1786865E1,1.0546631E1,4.559278E2,0E0,0E0,0E0,0E0,0E0,0E0,0E0,0E0],"parents":[2147483647,0,0,1,1,2,2,3,3,4,4,5,5,6,6],"right_children":[2,4,6,8,10,12,14,-1,-1,-1,-1,-1,-1,-1,-1],"split_conditions":[9.342641E-1,-3.2497424E-1,-4.2933932E-1,1.0989074E0,-8.6159766E-1,5.374978E-1,3.2097384E-1,8.2141556E-2,-3.3916748E-1,2.6883205E-2,-4.4595757E-1,2.9229447E-1,4.4568378E-1,3.5641834E-1,-1.7203821E-1],"split_indices":[84,55,82,20,85,77,85,0,0,0,0,0,0,0,0],"split_type":[0,0,0,0,0,0,0,0,0,0,0,0,0,0,0],"sum_hessian":[2.682416E3,1.2476876E3,1.4347284E3,3.3246237E2,9.152253E2,8.387557E2,5.959727E2,1.5993753E2,1.7252484E2,2.5472752E1,8.897525E2,5.060998E1,7.881457E2,3.3667136E2,2.593014E2],"tree_param":{"num_deleted":"0","num_feature":"86","num_nodes":"15","size_leaf_vector":"1"}},{"base_weights":[2.6759712E-4,-9.612252E-1,8.2787025E-1,3.077555E-1,-1.0996823E0,1.0552785E0,-1.5394257E-1,2.9633257E-1,-1.5699753E-1,-3.4826335E-1,3.2491577E-1,3.3623064E-1,-4.3274274E-1,2.883183E-1,-2.8155103E-1],"categories":[],"categories_nodes":[],"categories_segments":[],"categories_sizes":[],"default_left":[0,0,0,0,0,0,0,0,0,0,0,0,0,0,0],"id":2,"left_children":[1,3,5,7,9,11,13,-1,-1,-1,-1,-1,-1,-1,-1],"loss_changes":[1.9004955E3,1.9445282E2,2.867428E2,6.238247E1,1.3434216E2,1.7211243E2,2.1282697E2,0E0,0E0,0E0,0E0,0E0,0E0,0E0,0E0],"parents":[2147483647,0,0,1,1,2,2,3,3,4,4,5,5,6,6],"right_children":[2,4,6,8,10,12,14,-1,-1,-1,-1,-1,-1,-1,-1],"split_conditions":[9.342641E-1,-4.6740717E-1,-1.6305612E-1,1.0989074E0,4.5233575E-1,1.4057112E0,-7.321666E-2,2.9633257E-1,-1.5699753E-1,-3.4826335E-1,3.2491577E-1,3.3623064E-1,-4.3274274E-1,2.883183E-1,-2.8155103E-1],"split_indices":[84,85,55,20,45,81,85,0,0,0,0,0,0,0,0],"split_type":[0,0,0,0,0,0,0,0,0,0,0,0,0,0,0],"sum_hessian":[2.3863552E3,1.1038093E3,1.2825459E3,1.0846725E2,9.9534204E2,1.0412872E3,2.412587E2,5.955153E1,4.8915718E1,9.686529E2,2.668918E1,1.0152198E3,2.60674E1,9.95521E1,1.4170659E2],"tree_param":{"num_deleted":"0","num_feature":"86","num_nodes":"15","size_leaf_vector":"1"}},{"base_weights":[-5.4448005E-4,-8.0612046E-1,6.856708E-1,1.537304E-1,-9.983638E-1,1.0713551E0,1.6572726E-1,-6.370833E-2,4.516666E-1,-3.0527486E-2,-3.2605788E-1,3.5718477E-1,2.0451455E-1,2.1893072E-1,-3.3614406E-1],"categories":[],"categories_nodes":[],"categories_segments":[],"categories_sizes":[],"default_left":[0,0,0,0,0,0,0,0,0,0,0,0,0,0,0],"id":3,"left_children":[1,3,5,7,9,11,13,-1,-1,-1,-1,-1,-1,-1,-1],"loss_changes":[1.146161E3,1.761427E2,2.2434802E2,7.950834E1,6.2947937E1,2.9050537E1,3.4760095E2,0E0,0E0,0E0,0E0,0E0,0E0,0E0,0E0],"parents":[2147483647,0,0,1,1,2,2,3,3,4,4,5,5,6,6],"right_children":[2,4,6,8,10,12,14,-1,-1,-1,-1,-1,-1,-1,-1],"split_conditions":[9.342641E-1,-4.3291962E-1,-7.321666E-2,2.356473E0,-4.6740717E-1,-4.6740717E-1,1.0989074E0,-6.370833E-2,4.516666E-1,-3.0527486E-2,-3.2605788E-1,3.5718477E-1,2.0451455E-1,2.1893072E-1,-3.3614406E-1],"split_indices":[84,55,85,6,85,85,20,0,0,0,0,0,0,0,0],"split_type":[0,0,0,0,0,0,0,0,0,0,0,0,0,0,0],"sum_hessian":[2.0713796E3,9.527422E2,1.1186376E3,1.5901204E2,7.9373016E2,6.416288E2,4.7700873E2,1.25789536E2,3.322251E1,7.1497284E1,7.2223285E2,4.8968933E2,1.5193944E2,3.3189508E2,1.4511366E2],"tree_param":{"num_deleted":"0","num_feature":"86","num_nodes":"15","size_leaf_vector":"1"}},{"base_weights":[-1.9458549E-4,-6.8171906E-1,5.72342E-1,-1.4747398E-1,-1.0422174E0,9.880757E-1,9.957973E-2,1.2840597E-1,-2.1333258E-1,-3.158519E-1,2.9424748E-1,2.5932598E-1,3.5996646E-1,1.9067325E-1,-1.6897513E-1],"categories":[],"categories_nodes":[],"categories_segments":[],"categories_sizes":[],"default_left":[0,0,0,0,0,0,0,0,0,0,0,0,0,0,0],"id":4,"left_children":[1,3,5,7,9,11,13,-1,-1,-1,-1,-1,-1,-1,-1],"loss_changes":[7.0109015E2,1.5783185E2,1.9181714E2,1.078876E2,1.1554504E1,1.2568146E1,1.6307495E2,0E0,0E0,0E0,0E0,0E0,0E0,0E0,0E0],"parents":[2147483647,0,0,1,1,2,2,3,3,4,4,5,5,6,6],"right_children":[2,4,6,8,10,12,14,-1,-1,-1,-1,-1,-1,-1,-1],"split_conditions":[9.342641E-1,-2.3501973E-1,-4.2933932E-1,1.0989074E0,3.3762455E0,7.9788166E-1,1.8807025E-1,1.2840597E-1,-2.1333258E-1,-3.158519E-1,2.9424748E-1,2.5932598E-1,3.5996646E-1,1.9067325E-1,-1.6897513E-1],"split_indices":[84,55,82,20,26,49,81,0,0,0,0,0,0,0,0],"split_type":[0,0,0,0,0,0,0,0,0,0,0,0,0,0,0],"sum_hessian":[1.7947563E3,8.1930176E2,9.754546E2,3.3067004E2,4.886317E2,5.184523E2,4.570023E2,1.6373279E2,1.6693724E2,4.8655655E2,2.0751572E0,3.3055557E2,1.8789673E2,2.5269862E2,2.0430367E2],"tree_param":{"num_deleted":"0","num_feature":"86","num_nodes":"15","size_leaf_vector":"1"}},{"base_weights":[-5.934681E-4,4.1386288E-1,-6.923359E-1,7.139797E-1,-2.079709E-1,-8.408114E-1,6.987443E-1,-1.9552548E-1,2.3666789E-1,2.3453537E-1,-1.956205E-1,1.4844236E-1,-2.7970862E-1,3.333855E-1,-1.6220506E-1],"categories":[],"categories_nodes":[],"categories_segments":[],"categories_sizes":[],"default_left":[0,0,0,0,0,0,0,0,0,0,0,0,0,0,0],"id":5,"left_children":[1,3,5,7,9,11,13,-1,-1,-1,-1,-1,-1,-1,-1],"loss_changes":[4.5183173E2,1.8406886E2,1.2254422E2,6.8544556E1,1.4186148E2,6.575476E1,2.9997068E1,0E0,0E0,0E0,0E0,0E0,0E0,0E0,0E0],"parents":[2147483647,0,0,1,1,2,2,3,3,4,4,5,5,6,6],"right_children":[2,4,6,8,10,12,14,-1,-1,-1,-1,-1,-1,-1,-1],"split_conditions":[-2.1103185E-1,1.0989074E0,7.9788166E-1,-7.5964177E-1,-4.6740717E-1,-8.6159766E-1,7.1516436E-1,-1.9552548E-1,2.3666789E-1,2.3453537E-1,-1.956205E-1,1.4844236E-1,-2.7970862E-1,3.333855E-1,-1.6220506E-1],"split_indices":[55,20,49,38,85,85,85,0,0,0,0,0,0,0,0],"split_type":[0,0,0,0,0,0,0,0,0,0,0,0,0,0,0],"sum_hessian":[1.5739907E3,9.8451935E2,5.8947144E2,6.6393494E2,3.2058438E2,5.3298E2,5.6491463E1,3.4124084E1,6.2981085E2,9.905689E1,2.215275E2,3.3907265E1,4.990727E2,4.2461605E1,1.4029858E1],"tree_param":{"num_deleted":"0","num_feature":"86","num_nodes":"15","size_leaf_vector":"1"}},{"base_weights":[-1.8459681E-3,5.908888E-1,-3.9579704E-1,-8.613342E-2,8.2999265E-1,-6.1604285E-1,7.758914E-1,1.6227283E-1,-3.048421E-1,2.7276754E-1,-1.3685635E-2,-2.1869119E-1,3.113554E-1,5.2000917E-2,3.434245E-1],"categories":[],"categories_nodes":[],"categories_segments":[],"categories_sizes":[],"default_left":[0,0,0,0,0,0,0,0,0,0,0,0,0,0,0],"id":6,"left_children":[1,3,5,7,9,11,13,-1,-1,-1,-1,-1,-1,-1,-1],"loss_changes":[3.2772305E2,9.078215E1,2.1805063E2,8.6365105E1,2.877771E1,1.3341266E2,2.9550156E1,0E0,0E0,0E0,0E0,0E0,0E0,0E0,0E0],"parents":[2147483647,0,0,1,1,2,2,3,3,4,4,5,5,6,6],"right_children":[2,4,6,8,10,12,14,-1,-1,-1,-1,-1,-1,-1,-1],"split_conditions":[-7.321666E-2,-5.8017653E-1,1.6094877E0,1.0989074E0,9.594893E-1,7.356864E-1,-4.7167468E-1,1.6227283E-1,-3.048421E-1,2.7276754E-1,-1.3685635E-2,-2.1869119E-1,3.113554E-1,5.2000917E-2,3.434245E-1],"split_indices":[85,38,57,20,4,26,25,0,0,0,0,0,0,0,0],"split_type":[0,0,0,0,0,0,0,0,0,0,0,0,0,0,0],"sum_hessian":[1.4014725E3,5.593621E2,8.421104E2,1.4615741E2,4.1320468E2,7.092624E2,1.3284796E2,8.754794E1,5.860947E1,3.7888196E2,3.4322712E1,6.644529E2,4.4809547E1,5.1002132E1,8.184583E1],"tree_param":{"num_deleted":"0","num_feature":"86","num_nodes":"15","size_leaf_vector":"1"}},{"base_weights":[1.6523157E-3,-1.9804226E-1,9.6765673E-1,1.816514E-1,-7.057193E-1,1.2077184E0,5.975908E-1,1.0103822E-1,-2.5596735E-1,1.4566278E-1,-2.5958797E-1,5.6258243E-1,3.2410663E-1,3.2446834E-1,7.2294646E-3],"categories":[],"categories_nodes":[],"categories_segments":[],"categories_sizes":[],"default_left":[0,0,0,0,0,0,0,0,0,0,0,0,0,0,0],"id":7,"left_children":[1,3,5,7,9,11,13,-1,-1,-1,-1,-1,-1,-1,-1],"loss_changes":[2.421095E2,2.0061362E2,1.8378876E1,9.5950356E1,8.5056915E1,8.978317E0,2.4003136E1,0E0,0E0,0E0,0E0,0E0,0E0,0E0,0E0],"parents":[2147483647,0,0,1,1,2,2,3,3,4,4,5,5,6,6],"right_children":[2,4,6,8,10,12,14,-1,-1,-1,-1,-1,-1,-1,-1],"split_conditions":[7.9788166E-1,1.0989074E0,-4.293288E-1,1.5035454E0,-8.6159766E-1,9.342641E-1,3.2097384E-1,1.0103822E-1,-2.5596735E-1,1.4566278E-1,-2.5958797E-1,5.6258243E-1,3.2410663E-1,3.2446834E-1,7.2294646E-3],"split_indices":[49,20,82,85,85,84,85,0,0,0,0,0,0,0,0],"split_type":[0,0,0,0,0,0,0,0,0,0,0,0,0,0,0],"sum_hessian":[1.2530721E3,1.0390686E3,2.1400359E2,5.9483295E2,4.442357E2,1.2842853E2,8.557506E1,5.178712E2,7.696172E1,5.2236137E1,3.9199954E2,1.837812E1,1.100504E2,4.592936E1,3.96457E1],"tree_param":{"num_deleted":"0","num_feature":"86","num_nodes":"15","size_leaf_vector":"1"}},{"base_weights":[4.3549086E-4,-4.4231582E-1,3.670833E-1,-5.675972E-1,7.159807E-1,5.079148E-1,-6.281202E-1,-6.7722495E-3,-2.4344558E-1,1.2222443E-1,5.6708133E-1,-8.221247E-2,1.9687812E-1,-3.110121E-1,2.2892739E-1],"categories":[],"categories_nodes":[],"categories_segments":[],"categories_sizes":[],"default_left":[0,0,0,0,0,0,0,0,0,0,0,0,0,0,0],"id":8,"left_children":[1,3,5,7,9,11,13,-1,-1,-1,-1,-1,-1,-1,-1],"loss_changes":[1.863362E2,7.586022E1,8.8321846E1,6.2426132E1,1.7779308E1,6.405008E1,4.529088E1,0E0,0E0,0E0,0E0,0E0,0E0,0E0,0E0],"parents":[2147483647,0,0,1,1,2,2,3,3,4,4,5,5,6,6],"right_children":[2,4,6,8,10,12,14,-1,-1,-1,-1,-1,-1,-1,-1],"split_conditions":[9.342641E-1,2.356473E0,9.594893E-1,-7.321666E-2,5.8062344E0,5.374978E-1,1.923352E-1,-6.7722495E-3,-2.4344558E-1,1.2222443E-1,5.6708133E-1,-8.221247E-2,1.9687812E-1,-3.110121E-1,2.2892739E-1],"split_indices":[84,6,4,85,23,77,45,0,0,0,0,0,0,0,0],"split_type":[0,0,0,0,0,0,0,0,0,0,0,0,0,0,0],"sum_hessian":[1.145858E3,5.1896606E2,6.2689197E2,4.687735E2,5.019259E1,5.496066E2,7.728534E1,1.4525682E2,3.235167E2,4.0814728E1,9.377859E0,8.750494E1,4.6210168E2,5.9937138E1,1.73482E1],"tree_param":{"num_deleted":"0","num_feature":"86","num_nodes":"15","size_leaf_vector":"1"}},{"base_weights":[-4.1301028E-4,-1.4593957E-1,9.6099913E-1,-2.9851386E-1,7.5243735E-1,-9.502084E-2,1.0704453E0,-1.3698661E-1,2.1904969E-1,3.3275512E-1,1.0660324E-1,1.4630753E-1,-2.838785E-1,3.3239108E-1,-5.1768047E-1],"categories":[],"categories_nodes":[],"categories_segments":[],"categories_sizes":[],"default_left":[0,0,0,0,0,0,0,0,0,0,0,0,0,0,0],"id":9,"left_children":[1,3,5,7,9,11,13,-1,-1,-1,-1,-1,-1,-1,-1],"loss_changes":[1.4624774E2,1.2466521E2,1.5984596E1,1.26671104E2,1.831733E1,7.3183103E0,1.498497E1,0E0,0E0,0E0,0E0,0E0,0E0,0E0,0E0],"parents":[2147483647,0,0,1,1,2,2,3,3,4,4,5,5,6,6],"right_children":[2,4,6,8,10,12,14,-1,-1,-1,-1,-1,-1,-1,-1],"split_conditions":[2.7900204E-1,7.9788166E-1,-4.5117864E-1,-8.9458674E-2,-4.2933932E-1,-2.8094432E-1,2.8953749E1,-1.3698661E-1,2.1904969E-1,3.3275512E-1,1.0660324E-1,1.4630753E-1,-2.838785E-1,3.3239108E-1,-5.1768047E-1],"split_indices":[45,49,25,26,82,73,39,0,0,0,0,0,0,0,0],"split_type":[0,0,0,0,0,0,0,0,0,0,0,0,0,0,0],"sum_hessian":[1.0432888E3,9.068668E2,1.3642198E2,7.757811E2,1.3108572E2,1.2823445E1,1.23598526E2,6.7291077E2,1.02870346E2,6.810622E1,6.29795E1,7.8659387E0,4.9575067E0,1.2255746E2,1.0410719E0],"tree_param":{"num_deleted":"0","num_feature":"86","num_nodes":"15","size_leaf_vector":"1"}},{"base_weights":[5.792155E-3,2.4505801E-1,-5.1628053E-1,7.0219165E-1,5.217978E-2,-5.838943E-1,5.3569406E-1,-4.612674E-2,2.3709062E-1,-3.6136933E-2,1.9789882E-1,2.7018279E-2,-2.2416297E-1],"categories":[],"categories_nodes":[],"categories_segments":[],"categories_sizes":[],"default_left":[0,0,0,0,0,0,0,0,0,0,0,0,0],"id":10,"left_children":[1,3,5,7,9,11,-1,-1,-1,-1,-1,-1,-1],"loss_changes":[1.22357445E2,5.9185978E1,4.8955673E1,1.514679E1,4.9731968E1,3.306665E1,0E0,0E0,0E0,0E0,0E0,0E0,0E0],"parents":[2147483647,0,0,1,1,2,2,3,3,4,4,5,5],"right_children":[2,4,6,8,10,12,-1,-1,-1,-1,-1,-1,-1],"split_conditions":[-1.6905308E-1,-4.6740717E-1,1.8393686E0,5.374978E-1,1.4082215E0,-6.926737E-1,5.3569406E-1,-4.612674E-2,2.3709062E-1,-3.6136933E-2,1.9789882E-1,2.7018279E-2,-2.2416297E-1],"split_indices":[55,85,3,77,57,73,0,0,0,0,0,0,0],"split_type":[0,0,0,0,0,0,0,0,0,0,0,0,0],"sum_hessian":[9.775193E2,6.7067816E2,3.0684113E2,1.98227E2,4.7245117E2,2.988106E2,8.030529E0,1.8431303E1,1.797957E2,3.6852454E2,1.03926636E2,5.8372585E1,2.4043802E2],"tree_param":{"num_deleted":"0","num_feature":"86","num_nodes":"13","size_leaf_vector":"1"}},{"base_weights":[6.21652E-3,2.59111E-1,-3.8733557E-1,3.8901743E-1,-4.4047487E-1,-5.2723736E-1,6.804882E-1,-2.133013E-1,1.5199165E-1,-2.616164E-1,1.8478721E-1,-1.7919756E-1,2.6491678E-1,3.6231893E-1,-8.821524E-2],"categories":[],"categories_nodes":[],"categories_segments":[],"categories_sizes":[],"default_left":[0,0,0,0,0,0,0,0,0,0,0,0,0,0,0],"id":11,"left_children":[1,3,5,7,9,11,13,-1,-1,-1,-1,-1,-1,-1,-1],"loss_changes":[9.120032E1,5.0868633E1,5.3912804E1,6.130256E1,4.058315E1,3.1912605E1,2.191642E1,0E0,0E0,0E0,0E0,0E0,0E0,0E0,0E0],"parents":[2147483647,0,0,1,1,2,2,3,3,4,4,5,5,6,6],"right_children":[2,4,6,8,10,12,14,-1,-1,-1,-1,-1,-1,-1,-1],"split_conditions":[1.0989074E0,2.9320602E0,1.1092424E0,-7.5964177E-1,2.0202162E0,1.9847358E0,7.1516436E-1,-2.133013E-1,1.5199165E-1,-2.616164E-1,1.8478721E-1,-1.7919756E-1,2.6491678E-1,3.6231893E-1,-8.821524E-2],"split_indices":[20,50,3,38,57,49,85,0,0,0,0,0,0,0,0],"split_type":[0,0,0,0,0,0,0,0,0,0,0,0,0,0,0],"sum_hessian":[9.1432776E2,5.5684424E2,3.5748352E2,4.700115E2,8.683274E1,3.1652057E2,4.0962944E1,4.491466E1,4.2509683E2,6.177187E1,2.506087E1,3.0208423E2,1.4436334E1,2.6426497E1,1.4536448E1],"tree_param":{"num_deleted":"0","num_feature":"86","num_nodes":"15","size_leaf_vector":"1"}},{"base_weights":[4.5767515E-3,4.0901083E-1,-2.279262E-1,2.5267863E-1,1.021568E0,1.386004E-1,-5.4322284E-1,9.537426E-3,1.8821506E-1,2.663199E-1,4.8715347E-1,1.349435E-1,-1.2597673E-1,-2.1243183E-1,2.7201962E-1],"categories":[],"categories_nodes":[],"categories_segments":[],"categories_sizes":[],"default_left":[0,0,0,0,0,0,0,0,0,0,0,0,0,0,0],"id":12,"left_children":[1,3,5,7,9,11,13,-1,-1,-1,-1,-1,-1,-1,-1],"loss_changes":[8.051989E1,2.967474E1,6.2911964E1,2.0700878E1,3.6547318E0,4.4032467E1,7.057066E1,0E0,0E0,0E0,0E0,0E0,0E0,0E0,0E0],"parents":[2147483647,0,0,1,1,2,2,3,3,4,4,5,5,6,6],"right_children":[2,4,6,8,10,12,14,-1,-1,-1,-1,-1,-1,-1,-1],"split_conditions":[-4.2933932E-1,7.9788166E-1,-7.6579934E-1,-4.8907697E-1,3.9462513E-1,1.1291943E0,1.1092424E0,9.537426E-3,1.8821506E-1,2.663199E-1,4.8715347E-1,1.349435E-1,-1.2597673E-1,-2.1243183E-1,2.7201962E-1],"split_indices":[82,49,73,25,40,78,3,0,0,0,0,0,0,0,0],"split_type":[0,0,0,0,0,0,0,0,0,0,0,0,0,0,0],"sum_hessian":[8.543106E2,3.115743E2,5.4273627E2,2.4934967E2,6.2224644E1,2.512376E2,2.914987E2,1.5755588E2,9.179379E1,5.2935528E1,9.289114E0,1.6146388E2,8.977372E1,2.6219458E2,2.930411E1],"tree_param":{"num_deleted":"0","num_feature":"86","num_nodes":"15","size_leaf_vector":"1"}},{"base_weights":[4.720558E-3,-9.074036E-2,7.940243E-1,2.7506894E-1,-3.069512E-1,-3.0590794E-3,9.7875273E-1,-5.4234505E-2,1.9938608E-1,5.8145415E-2,-1.5939671E-1,1.6953325E-1,-1.752873E-1,3.0943713E-1,-3.2141012E-1],"categories":[],"categories_nodes":[],"categories_segments":[],"categories_sizes":[],"default_left":[0,0,0,0,0,0,0,0,0,0,0,0,0,0,0],"id":13,"left_children":[1,3,5,7,9,11,13,-1,-1,-1,-1,-1,-1,-1,-1],"loss_changes":[6.0327217E1,5.6580616E1,1.2722656E1,4.73347E1,5.059994E1,6.0268917E0,8.683128E0,0E0,0E0,0E0,0E0,0E0,0E0,0E0,0E0],"parents":[2147483647,0,0,1,1,2,2,3,3,4,4,5,5,6,6],"right_children":[2,4,6,8,10,12,14,-1,-1,-1,-1,-1,-1,-1,-1],"split_conditions":[2.7900204E-1,-5.620145E-1,-2.5625268E-2,-1.306629E0,-4.2933932E-1,7.1516436E-1,2.8953749E1,-5.4234505E-2,1.9938608E-1,5.8145415E-2,-1.5939671E-1,1.6953325E-1,-1.752873E-1,3.0943713E-1,-3.2141012E-1],"split_indices":[45,81,25,81,82,85,39,0,0,0,0,0,0,0,0],"split_type":[0,0,0,0,0,0,0,0,0,0,0,0,0,0,0],"sum_hessian":[7.9869525E2,7.1331024E2,8.538499E1,2.6488184E2,4.4842844E2,1.625027E1,6.913472E1,1.2230139E2,1.4258044E2,1.3879375E2,3.0963467E2,8.231497E0,8.018774E0,6.788638E1,1.2483363E0],"tree_param":{"num_deleted":"0","num_feature":"86","num_nodes":"15","size_leaf_vector":"1"}},{"base_weights":[5.279592E-3,-1.0149623E-1,6.3727576E-1,-2.6294636E-3,-7.998966E-1,7.327188E-1,-4.009565E-1,-3.2215204E-2,1.9643852E-1,-3.0123985E-1,2.2570866E-1,2.3660623E-1,-3.3445105E-1,-2.98648E-1,9.797979E-2],"categories":[],"categories_nodes":[],"categories_segments":[],"categories_sizes":[],"default_left":[0,0,0,0,0,0,0,0,0,0,0,0,0,0,0],"id":14,"left_children":[1,3,5,7,9,11,13,-1,-1,-1,-1,-1,-1,-1,-1],"loss_changes":[5.1251247E1,4.4862564E1,1.1170914E1,3.9337875E1,2.629866E1,1.1310776E1,4.602082E0,0E0,0E0,0E0,0E0,0E0,0E0,0E0,0E0],"parents":[2147483647,0,0,1,1,2,2,3,3,4,4,5,5,6,6],"right_children":[2,4,6,8,10,12,14,-1,-1,-1,-1,-1,-1,-1,-1],"split_conditions":[7.9788166E-1,9.594893E-1,1.9178048E0,1.0560082E0,7.0804656E-1,1.6480165E0,1.0566835E-1,-3.2215204E-2,1.9643852E-1,-3.0123985E-1,2.2570866E-1,2.3660623E-1,-3.3445105E-1,-2.98648E-1,9.797979E-2],"split_indices":[49,4,4,56,9,81,45,0,0,0,0,0,0,0,0],"split_type":[0,0,0,0,0,0,0,0,0,0,0,0,0,0,0],"sum_hessian":[7.575228E2,6.48755E2,1.0876783E2,5.691841E2,7.957092E1,9.988026E1,8.887569E0,4.916766E2,7.750748E1,7.063088E1,8.940041E0,9.749979E1,2.380473E0,4.6882234E0,4.1993465E0],"tree_param":{"num_deleted":"0","num_feature":"86","num_nodes":"15","size_leaf_vector":"1"}},{"base_weights":[4.045999E-3,-8.9156024E-2,6.7127883E-1,2.3876382E-2,-6.772559E-1,8.215679E-1,-4.9999928E-1,5.0790872E-2,-1.2835263E-1,-2.5899434E-1,1.341927E-1,2.7729934E-1,-2.5930354E-1,-2.5844058E-1,2.3284926E-1],"categories":[],"categories_nodes":[],"categories_segments":[],"categories_sizes":[],"default_left":[0,0,0,0,0,0,0,0,0,0,0,0,0,0,0],"id":15,"left_children":[1,3,5,7,9,11,13,-1,-1,-1,-1,-1,-1,-1,-1],"loss_changes":[4.583706E1,4.3010303E1,1.6313133E1,3.5774242E1,2.2210152E1,1.4735794E1,5.694442E0,0E0,0E0,0E0,0E0,0E0,0E0,0E0,0E0],"parents":[2147483647,0,0,1,1,2,2,3,3,4,4,5,5,6,6],"right_children":[2,4,6,8,10,12,14,-1,-1,-1,-1,-1,-1,-1,-1],"split_conditions":[7.3396415E-1,4.8033154E-1,8.0296904E-1,3.2645544E-1,7.0804656E-1,1.8977358E0,-8.9458674E-2,5.0790872E-2,-1.2835263E-1,-2.5899434E-1,1.341927E-1,2.7729934E-1,-2.5930354E-1,-2.5844058E-1,2.3284926E-1],"split_indices":[1,4,59,61,9,85,26,0,0,0,0,0,0,0,0],"split_type":[0,0,0,0,0,0,0,0,0,0,0,0,0,0,0],"sum_hessian":[7.351165E2,6.4577783E2,8.9338715E1,5.4247406E2,1.0330375E2,7.94437E1,9.895009E0,4.1083484E2,1.3163922E2,8.88379E1,1.4465856E1,7.5305275E1,4.138428E0,7.964144E0,1.9308645E0],"tree_param":{"num_deleted":"0","num_feature":"86","num_nodes":"15","size_leaf_vector":"1"}},{"base_weights":[2.9034447E-3,4.2896524E-2,-1.4094911E0,-4.0717892E-2,7.282063E-1,-1.851305E0,-2.5849588E-2,-1.353313E-1,2.5407743E-2,6.70244E-2,3.2027185E-1,-7.041991E-1,-3.0009085E-1,2.3730381E-1,-2.7287096E-1],"categories":[],"categories_nodes":[],"categories_segments":[],"categories_sizes":[],"default_left":[0,0,0,0,0,0,0,0,0,0,0,0,0,0,0],"id":16,"left_children":[1,3,5,7,9,11,13,-1,-1,-1,-1,-1,-1,-1,-1],"loss_changes":[4.0421062E1,3.9901325E1,1.1997887E1,3.200425E1,1.2732651E1,3.9505768E0,4.8943057E0,0E0,0E0,0E0,0E0,0E0,0E0,0E0,0E0],"parents":[2147483647,0,0,1,1,2,2,3,3,4,4,5,5,6,6],"right_children":[2,4,6,8,10,12,14,-1,-1,-1,-1,-1,-1,-1,-1],"split_conditions":[2.569979E0,9.835441E-1,2.356473E0,5.374978E-1,5.369804E-2,-3.849439E-1,-7.922147E-1,-1.353313E-1,2.5407743E-2,6.70244E-2,3.2027185E-1,-7.041991E-1,-3.0009085E-1,2.3730381E-1,-2.7287096E-1],"split_indices":[19,25,6,77,48,55,57,0,0,0,0,0,0,0,0],"split_type":[0,0,0,0,0,0,0,0,0,0,0,0,0,0,0],"sum_hessian":[7.1352386E2,6.9481915E2,1.8704731E1,6.201014E2,7.471778E1,1.3921447E1,4.783285E0,1.445351E2,4.7556628E2,3.070455E1,4.4013233E1,7.684219E0,6.2372274E0,2.5401845E0,2.2431006E0],"tree_param":{"num_deleted":"0","num_feature":"86","num_nodes":"15","size_leaf_vector":"1"}},{"base_weights":[2.2427025E-3,6.456896E-2,-8.24541E-1,2.352435E-1,-2.1994738E-1,3.9568818E-1,-1.0132053E0,-1.6173072E-1,9.5387585E-2,-1.1842345E-1,1.9634627E-1,3.7023398E-1,-1.8451412E-1,-3.2390097E-1,1.8007791E-1],"categories":[],"categories_nodes":[],"categories_segments":[],"categories_sizes":[],"default_left":[0,0,0,0,0,0,0,0,0,0,0,0,0,0,0],"id":17,"left_children":[1,3,5,7,9,11,13,-1,-1,-1,-1,-1,-1,-1,-1],"loss_changes":[3.6085033E1,3.1671188E1,1.1701805E1,2.6270603E1,3.7655155E1,6.9389696E0,5.2374573E0,0E0,0E0,0E0,0E0,0E0,0E0,0E0,0E0],"parents":[2147483647,0,0,1,1,2,2,3,3,4,4,5,5,6,6],"right_children":[2,4,6,8,10,12,14,-1,-1,-1,-1,-1,-1,-1,-1],"split_conditions":[1.3796464E0,1.0989074E0,3.2097384E-1,-7.5964177E-1,9.0874475E-1,1.0989074E0,1.2636485E0,-1.6173072E-1,9.5387585E-2,-1.1842345E-1,1.9634627E-1,3.7023398E-1,-1.8451412E-1,-3.2390097E-1,1.8007791E-1],"split_indices":[81,20,85,38,13,20,0,0,0,0,0,0,0,0,0],"split_type":[0,0,0,0,0,0,0,0,0,0,0,0,0,0,0],"sum_hessian":[6.982346E2,6.5014594E2,4.8088696E1,4.0648093E2,2.43665E2,6.2925944E0,4.17961E1,3.8697044E1,3.677839E2,2.0352867E2,4.013632E1,3.3186789E0,2.9739158E0,4.0460236E1,1.3358674E0],"tree_param":{"num_deleted":"0","num_feature":"86","num_nodes":"15","size_leaf_vector":"1"}},{"base_weights":[-1.06700834E-4,5.086484E-1,-9.727124E-2,1.64173E-1,7.7601385E-1,1.1149871E0,-1.4686546E-1,1.5500225E-1,-9.9239446E-2,2.600788E-1,-3.4904648E-2,4.4641295E-1,-1.6903928E-1,-7.1885735E-2,1.5448722E-1],"categories":[],"categories_nodes":[],"categories_segments":[],"categories_sizes":[],"default_left":[0,0,0,0,0,0,0,0,0,0,0,0,0,0,0],"id":18,"left_children":[1,3,5,7,9,11,13,-1,-1,-1,-1,-1,-1,-1,-1],"loss_changes":[3.3209984E1,9.794813E0,3.4077152E1,8.606165E0,4.9999847E0,1.4793283E1,3.3443928E1,0E0,0E0,0E0,0E0,0E0,0E0,0E0,0E0],"parents":[2147483647,0,0,1,1,2,2,3,3,4,4,5,5,6,6],"right_children":[2,4,6,8,10,12,14,-1,-1,-1,-1,-1,-1,-1,-1],"split_conditions":[-8.6159766E-1,-1.3308641E-1,-1.2146844E0,-1.0189517E0,9.594893E-1,-1.538591E-1,-8.9458674E-2,1.5500225E-1,-9.9239446E-2,2.600788E-1,-3.4904648E-2,4.4641295E-1,-1.6903928E-1,-7.1885735E-2,1.5448722E-1],"split_indices":[85,42,1,81,4,13,26,0,0,0,0,0,0,0,0],"split_type":[0,0,0,0,0,0,0,0,0,0,0,0,0,0,0],"sum_hessian":[6.698178E2,1.0673207E2,5.6308575E2,4.7345657E1,5.9386414E1,2.1286482E1,5.4179926E2,2.7626896E1,1.971876E1,5.392132E1,5.4650893E0,1.750846E1,3.7780228E0,4.7576E2,6.603924E1],"tree_param":{"num_deleted":"0","num_feature":"86","num_nodes":"15","size_leaf_vector":"1"}},{"base_weights":[3.986822E-3,-4.4536527E-2,8.609868E-1,-1.2044785E-2,-1.3098949E0,9.511644E-1,-2.719066E-1,-1.6118238E-2,3.0745232E-1,-4.358785E-1,-1.0837621E-2,-5.0430905E-2,3.184051E-1],"categories":[],"categories_nodes":[],"categories_segments":[],"categories_sizes":[],"default_left":[0,0,0,0,0,0,0,0,0,0,0,0,0],"id":19,"left_children":[1,3,5,7,9,11,-1,-1,-1,-1,-1,-1,-1],"loss_changes":[2.6958326E1,2.521231E1,6.398508E0,2.5955397E1,2.7446346E0,4.3147984E0,0E0,0E0,0E0,0E0,0E0,0E0,0E0],"parents":[2147483647,0,0,1,1,2,2,3,3,4,4,5,5],"right_children":[2,4,6,8,10,12,-1,-1,-1,-1,-1,-1,-1],"split_conditions":[6.1614466E-1,2.569979E0,1.951727E1,1.8393686E0,2.356473E0,-4.5982155E-1,-2.719066E-1,-1.6118238E-2,3.0745232E-1,-4.358785E-1,-1.0837621E-2,-5.0430905E-2,3.184051E-1],"split_indices":[43,19,39,3,6,25,0,0,0,0,0,0,0],"split_type":[0,0,0,0,0,0,0,0,0,0,0,0,0],"sum_hessian":[6.4635596E2,6.1261755E2,3.373838E1,5.982649E2,1.4352666E1,3.2539864E1,1.1985166E0,5.760557E2,2.2209179E1,1.2777241E1,1.575425E0,2.8691726E0,2.967069E1],"tree_param":{"num_deleted":"0","num_feature":"86","num_nodes":"13","size_leaf_vector":"1"}},{"base_weights":[4.653618E-3,8.168218E-2,-4.870603E-1,1.1191714E-1,-3.5326597E-1,5.337399E-1,-6.437998E-1,4.9006853E-2,-1.8864296E-1,4.5516887E-1,-5.6099962E-2,2.1281725E-2,-2.6995397E-1],"categories":[],"categories_nodes":[],"categories_segments":[],"categories_sizes":[],"default_left":[0,0,0,0,0,0,0,0,0,0,0,0,0],"id":20,"left_children":[1,3,5,7,-1,9,11,-1,-1,-1,-1,-1,-1],"loss_changes":[2.4152584E1,2.1119812E1,1.4162132E1,2.0649225E1,0E0,8.820061E0,1.38484745E1,0E0,0E0,0E0,0E0,0E0,0E0],"parents":[2147483647,0,0,1,1,2,2,3,3,5,5,6,6],"right_children":[2,4,6,8,-1,10,12,-1,-1,-1,-1,-1,-1],"split_conditions":[2.747225E-1,1.700146E0,-7.5072044E-1,1.5342165E0,-3.5326597E-1,3.7890226E-1,-4.2933983E-1,4.9006853E-2,-1.8864296E-1,4.5516887E-1,-5.6099962E-2,2.1281725E-2,-2.6995397E-1],"split_indices":[55,81,1,10,0,56,82,0,0,0,0,0,0],"split_type":[0,0,0,0,0,0,0,0,0,0,0,0,0],"sum_hessian":[6.356244E2,5.5025854E2,8.536588E1,5.3824603E2,1.201247E1,1.1042686E1,7.43232E1,5.0402408E2,3.422197E1,4.2027283E0,6.839958E0,1.9793577E1,5.4529617E1],"tree_param":{"num_deleted":"0","num_feature":"86","num_nodes":"13","size_leaf_vector":"1"}},{"base_weights":[-8.9175825E-5,-4.3894656E-2,8.503127E-1,-8.539635E-2,8.6358523E-1,9.601443E-1,-2.5627005E-1,4.0738545E-3,-1.870979E-1,3.0503076E-1,-6.484703E-2,3.2040983E-1,1.954787E-2],"categories":[],"categories_nodes":[],"categories_segments":[],"categories_sizes":[],"default_left":[0,0,0,0,0,0,0,0,0,0,0,0,0],"id":21,"left_children":[1,3,5,7,9,11,-1,-1,-1,-1,-1,-1,-1],"loss_changes":[2.3294632E1,2.2470783E1,6.555132E0,3.0353352E1,4.536255E0,2.7547207E0,0E0,0E0,0E0,0E0,0E0,0E0,0E0],"parents":[2147483647,0,0,1,1,2,2,3,3,4,4,5,5],"right_children":[2,4,6,8,10,12,-1,-1,-1,-1,-1,-1,-1],"split_conditions":[1.9847358E0,1.3835137E0,5.980026E-1,4.8033154E-1,2.4421222E0,1.1443818E-1,-2.5627005E-1,4.0738545E-3,-1.870979E-1,3.0503076E-1,-6.484703E-2,3.2040983E-1,1.954787E-2],"split_indices":[49,1,12,4,47,26,0,0,0,0,0,0,0],"split_type":[0,0,0,0,0,0,0,0,0,0,0,0,0],"sum_hessian":[6.233193E2,5.9368604E2,2.9633276E1,5.685887E2,2.5097317E1,2.8249735E1,1.3835417E0,4.81099E2,8.7489716E1,2.2030195E1,3.0671208E0,2.5038094E1,3.211642E0],"tree_param":{"num_deleted":"0","num_feature":"86","num_nodes":"13","size_leaf_vector":"1"}},{"base_weights":[1.6375022E-3,-5.3042825E-2,5.8824205E-1,7.428345E-2,-3.6944193E-1,8.7825555E-1,5.5150285E-2,7.7795476E-2,-6.323493E-2,-1.6822407E-1,6.669091E-2,-5.9340782E-2,2.983901E-1,2.0976217E-1,-1.9900611E-1],"categories":[],"categories_nodes":[],"categories_segments":[],"categories_sizes":[],"default_left":[0,0,0,0,0,0,0,0,0,0,0,0,0,0,0],"id":22,"left_children":[1,3,5,7,9,11,13,-1,-1,-1,-1,-1,-1,-1,-1],"loss_changes":[1.9709093E1,2.2671747E1,8.051626E0,2.1239614E1,1.840232E1,4.4376945E0,9.500075E0,0E0,0E0,0E0,0E0,0E0,0E0,0E0,0E0],"parents":[2147483647,0,0,1,1,2,2,3,3,4,4,5,5,6,6],"right_children":[2,4,6,8,10,12,14,-1,-1,-1,-1,-1,-1,-1,-1],"split_conditions":[2.3751817E0,-1.1080017E-1,6.414677E-1,-1.8079393E-1,7.2732314E-2,5.374978E-1,-8.3299136E-1,7.7795476E-2,-6.323493E-2,-1.6822407E-1,6.669091E-2,-5.9340782E-2,2.983901E-1,2.0976217E-1,-1.9900611E-1],"split_indices":[2,0,81,73,43,77,66,0,0,0,0,0,0,0,0],"split_type":[0,0,0,0,0,0,0,0,0,0,0,0,0,0,0],"sum_hessian":[6.124822E2,5.610898E2,5.1392395E1,4.0063165E2,1.6045818E2,3.286542E1,1.8526976E1,2.4299533E2,1.576363E2,1.2129663E2,3.9161537E1,3.139278E0,2.9726141E1,9.783786E0,8.743191E0],"tree_param":{"num_deleted":"0","num_feature":"86","num_nodes":"15","size_leaf_vector":"1"}},{"base_weights":[2.4106416E-3,-6.703644E-2,4.5030352E-1,5.916239E-3,-6.1322445E-1,-2.628714E-1,5.8646244E-1,9.147437E-2,-4.5317575E-2,-2.5121146E-1,2.4542245E-1,2.4608214E-1,-4.9636883E-1,2.0608178E-1,-7.2815396E-2],"categories":[],"categories_nodes":[],"categories_segments":[],"categories_sizes":[],"default_left":[0,0,0,0,0,0,0,0,0,0,0,0,0,0,0],"id":23,"left_children":[1,3,5,7,9,11,13,-1,-1,-1,-1,-1,-1,-1,-1],"loss_changes":[1.8712753E1,2.075832E1,7.996149E0,2.1659285E1,2.0378216E1,2.1913612E1,5.8421E0,0E0,0E0,0E0,0E0,0E0,0E0,0E0,0E0],"parents":[2147483647,0,0,1,1,2,2,3,3,4,4,5,5,6,6],"right_children":[2,4,6,8,10,12,14,-1,-1,-1,-1,-1,-1,-1,-1],"split_conditions":[7.9788166E-1,2.9320602E0,-5.168772E-1,7.9801774E-1,1.2005708E0,1.1291943E0,1.438647E0,9.147437E-2,-4.5317575E-2,-2.5121146E-1,2.4542245E-1,2.4608214E-1,-4.9636883E-1,2.0608178E-1,-7.2815396E-2],"split_indices":[49,50,55,24,63,78,4,0,0,0,0,0,0,0,0],"split_type":[0,0,0,0,0,0,0,0,0,0,0,0,0,0,0],"sum_hessian":[5.9963196E2,5.1987427E2,7.9757675E1,4.5949066E2,6.0383606E1,1.2636969E1,6.7120705E1,1.5786133E2,3.0162933E2,5.2566452E1,7.817155E0,7.337122E0,5.2998466E0,6.001934E1,7.1013618E0],"tree_param":{"num_deleted":"0","num_feature":"86","num_nodes":"15","size_leaf_vector":"1"}},{"base_weights":[1.6899399E-3,-6.691434E-2,4.844122E-1,9.105816E-2,-4.9724758E-1,9.4193804E-1,1.4484483E-1,-3.5073046E-2,1.0766291E-1,2.8345758E-1,-1.7898844E-1,3.1531906E-1,-2.5674468E-1,1.7864555E-1,-1.8667741E-1],"categories":[],"categories_nodes":[],"categories_segments":[],"categories_sizes":[],"default_left":[0,0,0,0,0,0,0,0,0,0,0,0,0,0,0],"id":24,"left_children":[1,3,5,7,9,11,13,-1,-1,-1,-1,-1,-1,-1,-1],"loss_changes":[1.9600956E1,3.5276016E1,1.13057785E1,2.120322E1,2.0529911E1,7.019068E0,1.5392697E1,0E0,0E0,0E0,0E0,0E0,0E0,0E0,0E0],"parents":[2147483647,0,0,1,1,2,2,3,3,4,4,5,5,6,6],"right_children":[2,4,6,8,10,12,14,-1,-1,-1,-1,-1,-1,-1,-1],"split_conditions":[2.6647022E0,7.1516436E-1,-3.124115E-1,-3.075019E-1,-1.2146844E0,2.9320602E0,-3.3696815E-1,-3.5073046E-2,1.0766291E-1,2.8345758E-1,-1.7898844E-1,3.1531906E-1,-2.5674468E-1,1.7864555E-1,-1.8667741E-1],"split_indices":[34,85,80,80,1,50,55,0,0,0,0,0,0,0,0],"split_type":[0,0,0,0,0,0,0,0,0,0,0,0,0,0,0],"sum_hessian":[5.8989453E2,5.1724524E2,7.2649284E1,3.7893066E2,1.3831454E2,3.0193403E1,4.2455883E1,2.1361563E2,1.6531503E2,8.368738E0,1.2994582E2,2.8857092E1,1.3363101E0,2.6885511E1,1.5570373E1],"tree_param":{"num_deleted":"0","num_feature":"86","num_nodes":"15","size_leaf_vector":"1"}},{"base_weights":[1.1886659E-3,-2.5136726E-2,1.0515487E0,-1.971748E-1,1.2644713E-1,2.4257728E-1,1.5696437E0,3.1023976E-1,-7.199205E-2,1.5272044E-2,2.6737303E-1,-2.3084167E-1,1.764179E-1,5.643468E-1,2.2450514E-1],"categories":[],"categories_nodes":[],"categories_segments":[],"categories_sizes":[],"default_left":[0,0,0,0,0,0,0,0,0,0,0,0,0,0,0],"id":25,"left_children":[1,3,5,7,9,11,13,-1,-1,-1,-1,-1,-1,-1,-1],"loss_changes":[1.5916143E1,1.4669808E1,5.517889E0,1.4130571E1,1.7237062E1,2.7871723E0,7.404156E-1,0E0,0E0,0E0,0E0,0E0,0E0,0E0,0E0],"parents":[2147483647,0,0,1,1,2,2,3,3,4,4,5,5,6,6],"right_children":[2,4,6,8,10,12,14,-1,-1,-1,-1,-1,-1,-1,-1],"split_conditions":[7.3997364E0,-1.9897386E-1,-1.1238542E0,-1.3074771E0,4.0116814E-1,-4.928893E-1,-1.108719E0,3.1023976E-1,-7.199205E-2,1.5272044E-2,2.6737303E-1,-2.3084167E-1,1.764179E-1,5.643468E-1,2.2450514E-1],"split_indices":[53,43,81,1,26,55,44,0,0,0,0,0,0,0,0],"split_type":[0,0,0,0,0,0,0,0,0,0,0,0,0,0,0],"sum_hessian":[5.7364935E2,5.6057556E2,1.3073753E1,2.624316E2,2.9814398E2,5.677273E0,7.3964806E0,8.037318E0,2.5439427E2,2.7231363E2,2.5830353E1,1.1325023E0,4.5447707E0,4.426901E0,2.9695797E0],"tree_param":{"num_deleted":"0","num_feature":"86","num_nodes":"15","size_leaf_vector":"1"}},{"base_weights":[4.1800924E-3,-5.3305835E-2,3.9715815E-1,-1.539102E-1,3.0945957E-1,5.141365E-1,-6.155985E-1,-5.488608E-2,2.9213667E-1,3.8705888E-4,1.5449476E-1,-2.454934E-1,1.8962707E-1,1.22758076E-1,-3.1249082E-1],"categories":[],"categories_nodes":[],"categories_segments":[],"categories_sizes":[],"default_left":[0,0,0,0,0,0,0,0,0,0,0,0,0,0,0],"id":26,"left_children":[1,3,5,7,9,11,13,-1,-1,-1,-1,-1,-1,-1,-1],"loss_changes":[1.2841351E1,1.8148018E1,8.910306E0,1.2917012E1,6.8403683E0,1.0823223E1,3.9042711E0,0E0,0E0,0E0,0E0,0E0,0E0,0E0,0E0],"parents":[2147483647,0,0,1,1,2,2,3,3,4,4,5,5,6,6],"right_children":[2,4,6,8,10,12,14,-1,-1,-1,-1,-1,-1,-1,-1],"split_conditions":[1.0560082E0,1.1202413E0,1.1296182E0,1.4987515E0,9.342641E-1,-6.85161E-1,7.1516436E-1,-5.488608E-2,2.9213667E-1,3.8705888E-4,1.5449476E-1,-2.454934E-1,1.8962707E-1,1.22758076E-1,-3.1249082E-1],"split_indices":[56,57,81,0,84,13,85,0,0,0,0,0,0,0,0],"split_type":[0,0,0,0,0,0,0,0,0,0,0,0,0,0,0],"sum_hessian":[5.664979E2,4.9495834E2,7.1539536E1,3.8794638E2,1.0701198E2,6.457334E1,6.966198E0,3.7902258E2,8.923799E0,4.321698E1,6.3795002E1,4.7685466E0,5.980479E1,2.0572402E0,4.9089575E0],"tree_param":{"num_deleted":"0","num_feature":"86","num_nodes":"15","size_leaf_vector":"1"}},{"base_weights":[4.56835E-3,3.5400555E-1,-5.942449E-2,5.8472276E-2,6.4892346E-1,-3.1411197E-2,-1.0239147E0,-4.6787538E-2,1.6148448E-1,2.2519578E-1,-3.036504E-2,-2.005847E-2,2.7953675E-1,-3.929862E-1,-4.041695E-2],"categories":[],"categories_nodes":[],"categories_segments":[],"categories_sizes":[],"default_left":[0,0,0,0,0,0,0,0,0,0,0,0,0,0,0],"id":27,"left_children":[1,3,5,7,9,11,13,-1,-1,-1,-1,-1,-1,-1,-1],"loss_changes":[1.240427E1,7.4454412E0,1.2637248E1,4.609308E0,3.3478699E0,1.5657095E1,3.1817274E0,0E0,0E0,0E0,0E0,0E0,0E0,0E0,0E0],"parents":[2147483647,0,0,1,1,2,2,3,3,4,4,5,5,6,6],"right_children":[2,4,6,8,10,12,14,-1,-1,-1,-1,-1,-1,-1,-1],"split_conditions":[-8.6159766E-1,-1.3308641E-1,2.569979E0,2.7000022E-1,9.594893E-1,1.8393686E0,5.024163E-1,-4.6787538E-2,1.6148448E-1,2.2519578E-1,-3.036504E-2,-2.005847E-2,2.7953675E-1,-3.929862E-1,-4.041695E-2],"split_indices":[85,42,19,1,4,3,41,0,0,0,0,0,0,0,0],"split_type":[0,0,0,0,0,0,0,0,0,0,0,0,0,0,0],"sum_hessian":[5.527753E2,8.485995E1,4.6791537E2,4.298426E1,4.1875683E1,4.557119E2,1.220343E1,3.0174143E1,1.2810118E1,3.6874344E1,5.0013404E0,4.404325E2,1.527943E1,8.875215E0,3.3282163E0],"tree_param":{"num_deleted":"0","num_feature":"86","num_nodes":"15","size_leaf_vector":"1"}},{"base_weights":[5.290045E-3,1.210924E-1,-1.8133569E-1,3.476597E-1,-1.2137756E-1,-8.470241E-1,5.3877074E-2,-1.1561795E-1,1.7055795E-1,-1.3397276E-1,8.005423E-2,4.8919205E-2,-2.8120878E-1,8.70223E-2,-1.7993736E-1],"categories":[],"categories_nodes":[],"categories_segments":[],"categories_sizes":[],"default_left":[0,0,0,0,0,0,0,0,0,0,0,0,0,0,0],"id":28,"left_children":[1,3,5,7,9,11,13,-1,-1,-1,-1,-1,-1,-1,-1],"loss_changes":[1.176715E1,1.849879E1,3.2691875E1,2.838083E1,2.0701618E1,5.125572E0,2.410547E1,0E0,0E0,0E0,0E0,0E0,0E0,0E0,0E0],"parents":[2147483647,0,0,1,1,2,2,3,3,4,4,5,5,6,6],"right_children":[2,4,6,8,10,12,14,-1,-1,-1,-1,-1,-1,-1,-1],"split_conditions":[1.0989074E0,-1.538591E-1,-5.8017653E-1,-6.85161E-1,-2.878636E-1,-6.85161E-1,7.1516436E-1,-1.1561795E-1,1.7055795E-1,-1.3397276E-1,8.005423E-2,4.8919205E-2,-2.8120878E-1,8.70223E-2,-1.7993736E-1],"split_indices":[20,13,38,13,80,13,85,0,0,0,0,0,0,0,0],"split_type":[0,0,0,0,0,0,0,0,0,0,0,0,0,0,0],"sum_hessian":[5.424645E2,3.349668E2,2.0749771E2,1.7293764E2,1.6202916E2,5.3495655E1,1.5400204E2,3.986882E1,1.3306882E2,8.808994E1,7.393922E1,4.3255897E0,4.9170063E1,1.1353384E2,4.0468212E1],"tree_param":{"num_deleted":"0","num_feature":"86","num_nodes":"15","size_leaf_vector":"1"}},{"base_weights":[1.0076984E-3,4.232351E-2,-5.067311E-1,1.04049586E-1,-4.2883512E-1,9.305394E-1,-6.493283E-1,-2.6221884E-2,8.609122E-2,-2.5288403E-1,2.628357E-1,4.9113512E-1,-1.4665318E-2,-3.455051E-1,2.5383987E-2],"categories":[],"categories_nodes":[],"categories_segments":[],"categories_sizes":[],"default_left":[0,0,0,0,0,0,0,0,0,0,0,0,0,0,0],"id":29,"left_children":[1,3,5,7,9,11,13,-1,-1,-1,-1,-1,-1,-1,-1],"loss_changes":[1.1066275E1,1.423145E1,8.739955E0,1.5158101E1,3.1379011E1,2.8439806E0,1.36295E1,0E0,0E0,0E0,0E0,0E0,0E0,0E0,0E0],"parents":[2147483647,0,0,1,1,2,2,3,3,4,4,5,5,6,6],"right_children":[2,4,6,8,10,12,14,-1,-1,-1,-1,-1,-1,-1,-1],"split_conditions":[1.438647E0,6.195444E-1,-1.9766563E-1,9.342641E-1,2.356473E0,9.342641E-1,5.583393E-1,-2.6221884E-2,8.609122E-2,-2.5288403E-1,2.628357E-1,4.9113512E-1,-1.4665318E-2,-3.455051E-1,2.5383987E-2],"split_indices":[4,10,45,84,6,84,0,0,0,0,0,0,0,0,0],"split_type":[0,0,0,0,0,0,0,0,0,0,0,0,0,0,0],"sum_hessian":[5.255047E2,4.868087E2,3.869604E1,4.3110867E2,5.5700005E1,2.993924E0,3.5702118E1,2.1089545E2,2.2021323E2,4.2550995E1,1.3149009E1,1.3491253E0,1.6447986E0,2.0857065E1,1.4845052E1],"tree_param":{"num_deleted":"0","num_feature":"86","num_nodes":"15","size_leaf_vector":"1"}},{"base_weights":[7.0502306E-4,-3.0833576E-2,6.8841046E-1,2.1742895E-2,-4.6618465E-1,8.196705E-1,-2.2413357E-1,-8.8858984E-2,3.1326067E-2,-1.7714542E-1,2.2825676E-1,2.9195753E-1,-7.415281E-2],"categories":[],"categories_nodes":[],"categories_segments":[],"categories_sizes":[],"default_left":[0,0,0,0,0,0,0,0,0,0,0,0,0],"id":30,"left_children":[1,3,5,7,9,11,-1,-1,-1,-1,-1,-1,-1],"loss_changes":[1.1103121E1,1.1214222E1,4.8420696E0,1.1536539E1,8.500806E0,3.6871529E0,0E0,0E0,0E0,0E0,0E0,0E0,0E0],"parents":[2147483647,0,0,1,1,2,2,3,3,4,4,5,5],"right_children":[2,4,6,8,10,12,-1,-1,-1,-1,-1,-1,-1],"split_conditions":[1.9847358E0,2.9320602E0,5.980026E-1,-1.306629E0,3.110837E0,1.1443818E-1,-2.2413357E-1,-8.8858984E-2,3.1326067E-2,-1.7714542E-1,2.2825676E-1,2.9195753E-1,-7.415281E-2],"split_indices":[49,50,12,81,63,26,0,0,0,0,0,0,0],"split_type":[0,0,0,0,0,0,0,0,0,0,0,0,0],"sum_hessian":[5.0993915E2,4.884918E2,2.1447372E1,4.3670218E2,5.1789585E1,2.0043648E1,1.4037244E0,8.959147E1,3.4711072E2,4.749689E1,4.2926955E0,1.7598917E1,2.44473E0],"tree_param":{"num_deleted":"0","num_feature":"86","num_nodes":"13","size_leaf_vector":"1"}},{"base_weights":[1.1189583E-3,-3.7503302E-2,4.9451438E-1,-5.785888E-3,-8.437082E-1,7.7904946E-1,-5.3391936E-3,1.6920557E-2,-1.0323392E-1,-4.027461E-2,-3.4564945E-1,2.742798E-1,-6.526623E-2,2.2536096E-1,-1.2312745E-1],"categories":[],"categories_nodes":[],"categories_segments":[],"categories_sizes":[],"default_left":[0,0,0,0,0,0,0,0,0,0,0,0,0,0,0],"id":31,"left_children":[1,3,5,7,9,11,13,-1,-1,-1,-1,-1,-1,-1,-1],"loss_changes":[9.67227E0,1.203252E1,5.244795E0,9.570155E0,3.7432785E0,3.3640575E0,4.708975E0,0E0,0E0,0E0,0E0,0E0,0E0,0E0,0E0],"parents":[2147483647,0,0,1,1,2,2,3,3,4,4,5,5,6,6],"right_children":[2,4,6,8,10,12,14,-1,-1,-1,-1,-1,-1,-1,-1],"split_conditions":[2.3751817E0,5.980026E-1,5.6864534E-2,4.8033154E-1,7.9801774E-1,9.189387E-1,-4.6460846E-1,1.6920557E-2,-1.0323392E-1,-4.027461E-2,-3.4564945E-1,2.742798E-1,-6.526623E-2,2.2536096E-1,-1.2312745E-1],"split_indices":[2,12,73,4,24,44,80,0,0,0,0,0,0,0,0],"split_type":[0,0,0,0,0,0,0,0,0,0,0,0,0,0,0],"sum_hessian":[5.055964E2,4.6974915E2,3.584728E1,4.5293704E2,1.6812103E1,2.2487823E1,1.3359454E1,3.8331366E2,6.962339E1,5.529443E0,1.12826605E1,1.9873991E1,2.613832E0,4.360781E0,8.9986725E0],"tree_param":{"num_deleted":"0","num_feature":"86","num_nodes":"15","size_leaf_vector":"1"}},{"base_weights":[1.0555126E-3,6.480125E-2,-2.633929E-1,-1.0771994E-1,1.9162536E-1,3.1095544E-1,-4.5489648E-1,3.122856E-2,-1.451438E-1,1.0048761E-1,-1.06084235E-1,-1.9524498E-2,5.057543E-1,-3.483014E-1,-6.269179E-2],"categories":[],"categories_nodes":[],"categories_segments":[],"categories_sizes":[],"default_left":[0,0,0,0,0,0,0,0,0,0,0,0,0,0,0],"id":32,"left_children":[1,3,5,7,9,11,13,-1,-1,-1,-1,-1,-1,-1,-1],"loss_changes":[8.499238E0,8.909134E0,1.0912651E1,1.3812231E1,1.8443924E1,1.30770855E1,1.2580943E1,0E0,0E0,0E0,0E0,0E0,0E0,0E0,0E0],"parents":[2147483647,0,0,1,1,2,2,3,3,4,4,5,5,6,6],"right_children":[2,4,6,8,10,12,14,-1,-1,-1,-1,-1,-1,-1,-1],"split_conditions":[5.260002E-1,-1.3308641E-1,-9.401139E-1,1.0989074E0,4.8033154E-1,-1.223608E0,5.374978E-1,3.122856E-2,-1.451438E-1,1.0048761E-1,-1.06084235E-1,-1.9524498E-2,5.057543E-1,-3.483014E-1,-6.269179E-2],"split_indices":[61,42,81,20,4,81,77,0,0,0,0,0,0,0,0],"split_type":[0,0,0,0,0,0,0,0,0,0,0,0,0,0,0],"sum_hessian":[5.0217017E2,4.0524106E2,9.69291E1,1.7175296E2,2.3348811E2,2.4081442E1,7.284766E1,1.1033537E2,6.141758E1,1.851906E2,4.829751E1,1.9657675E1,4.423768E0,1.7856432E1,5.4991226E1],"tree_param":{"num_deleted":"0","num_feature":"86","num_nodes":"15","size_leaf_vector":"1"}},{"base_weights":[-6.1569037E-4,-2.6181065E-2,6.8049103E-1,1.0512362E-1,-1.8876891E-1,8.7143075E-1,-2.8832132E-1,3.4062823E-4,2.374275E-1,2.8950283E-1,-7.788353E-2,3.27086E-1,1.5708389E-2,-2.354637E-1,8.552417E-2],"categories":[],"categories_nodes":[],"categories_segments":[],"categories_sizes":[],"default_left":[0,0,0,0,0,0,0,0,0,0,0,0,0,0,0],"id":33,"left_children":[1,3,5,7,9,11,13,-1,-1,-1,-1,-1,-1,-1,-1],"loss_changes":[8.595724E0,1.0176706E1,3.554841E0,1.8829012E1,1.7653824E1,2.6617365E0,1.274859E0,0E0,0E0,0E0,0E0,0E0,0E0,0E0,0E0],"parents":[2147483647,0,0,1,1,2,2,3,3,4,4,5,5,6,6],"right_children":[2,4,6,8,10,12,14,-1,-1,-1,-1,-1,-1,-1,-1],"split_conditions":[1.3835137E0,3.2097384E-1,2.4654107E0,9.0874475E-1,-1.2146844E0,-1.5106218E-1,-1.8313958E-1,3.4062823E-4,2.374275E-1,2.8950283E-1,-7.788353E-2,3.27086E-1,1.5708389E-2,-2.354637E-1,8.552417E-2],"split_indices":[1,85,47,13,1,55,0,0,0,0,0,0,0,0,0],"split_type":[0,0,0,0,0,0,0,0,0,0,0,0,0,0,0],"sum_hessian":[4.9162234E2,4.747636E2,1.6858713E1,2.6284528E2,2.1191837E2,1.416709E1,2.6916234E0,2.291293E2,3.3715954E1,1.1529062E1,2.003893E2,1.0918525E1,3.2485657E0,1.244818E0,1.4468056E0],"tree_param":{"num_deleted":"0","num_feature":"86","num_nodes":"15","size_leaf_vector":"1"}},{"base_weights":[2.6354701E-3,-4.742858E-2,3.7782088E-1,3.9796107E-2,-3.151271E-1,1.0918764E0,1.6099383E-1,-3.9027315E-2,6.755165E-2,-1.2266535E-1,2.2506033E-1,2.1623223E-1,5.690817E-1,-9.091188E-2,1.505025E-1],"categories":[],"categories_nodes":[],"categories_segments":[],"categories_sizes":[],"default_left":[0,0,0,0,0,0,0,0,0,0,0,0,0,0,0],"id":34,"left_children":[1,3,5,7,9,11,13,-1,-1,-1,-1,-1,-1,-1,-1],"loss_changes":[9.053579E0,9.94333E0,8.609788E0,1.0159642E1,1.0757749E1,2.5298786E0,7.2185755E0,0E0,0E0,0E0,0E0,0E0,0E0,0E0,0E0],"parents":[2147483647,0,0,1,1,2,2,3,3,4,4,5,5,6,6],"right_children":[2,4,6,8,10,12,14,-1,-1,-1,-1,-1,-1,-1,-1],"split_conditions":[2.6647022E0,7.1516436E-1,-6.552708E-1,-3.4186897E-1,4.350072E-1,1.8977358E0,9.342641E-1,-3.9027315E-2,6.755165E-2,-1.2266535E-1,2.2506033E-1,2.1623223E-1,5.690817E-1,-9.091188E-2,1.505025E-1],"split_indices":[34,85,47,80,43,85,84,0,0,0,0,0,0,0,0],"split_type":[0,0,0,0,0,0,0,0,0,0,0,0,0,0,0],"sum_hessian":[4.8004755E2,4.2430292E2,5.5744614E1,3.2066983E2,1.0363309E2,1.2044366E1,4.370025E1,1.6748088E2,1.5318896E2,9.581665E1,7.8164415E0,9.541438E0,2.502928E0,1.8547564E1,2.5152685E1],"tree_param":{"num_deleted":"0","num_feature":"86","num_nodes":"15","size_leaf_vector":"1"}},{"base_weights":[3.926573E-3,1.8623945E-1,-1.0167634E-1,3.2697782E-1,-4.6646568E-1,-3.4722306E-2,-6.4888513E-1,-4.113789E-2,1.4331837E-1,-1.8486542E-1,1.360991E-1,-1.7837809E-3,-3.3582166E-1,-2.663109E-1,2.0793447E-1],"categories":[],"categories_nodes":[],"categories_segments":[],"categories_sizes":[],"default_left":[0,0,0,0,0,0,0,0,0,0,0,0,0,0,0],"id":35,"left_children":[1,3,5,7,9,11,13,-1,-1,-1,-1,-1,-1,-1,-1],"loss_changes":[9.137023E0,1.6141933E1,1.0988497E1,1.0124543E1,4.5905795E0,8.384403E0,1.109768E1,0E0,0E0,0E0,0E0,0E0,0E0,0E0,0E0],"parents":[2147483647,0,0,1,1,2,2,3,3,4,4,5,5,6,6],"right_children":[2,4,6,8,10,12,14,-1,-1,-1,-1,-1,-1,-1,-1],"split_conditions":[7.9801774E-1,1.5261703E0,6.195444E-1,-5.6292146E-1,3.0457406E0,1.2799511E0,7.0804656E-1,-4.113789E-2,1.4331837E-1,-1.8486542E-1,1.360991E-1,-1.7837809E-3,-3.3582166E-1,-2.663109E-1,2.0793447E-1],"split_indices":[24,69,10,0,80,12,9,0,0,0,0,0,0,0,0],"split_type":[0,0,0,0,0,0,0,0,0,0,0,0,0,0,0],"sum_hessian":[4.725987E2,1.7306158E2,2.995371E2,1.4277502E2,3.0286566E1,2.6783008E2,3.1707045E1,3.502776E1,1.0774726E2,2.6331387E1,3.9551775E0,2.6188776E2,5.9423337E0,2.7204369E1,4.5026765E0],"tree_param":{"num_deleted":"0","num_feature":"86","num_nodes":"15","size_leaf_vector":"1"}},{"base_weights":[1.6850703E-3,-3.6717065E-2,4.0666285E-1,-1.6983844E-1,1.218098E-1,5.616239E-1,-7.0694494E-1,-2.0531293E-2,-2.0074776E-1,4.7906145E-2,-2.8921178E-1,-1.0208053E-1,2.0785429E-1,-5.131482E-1,1.9414304E-2],"categories":[],"categories_nodes":[],"categories_segments":[],"categories_sizes":[],"default_left":[0,0,0,0,0,0,0,0,0,0,0,0,0,0,0],"id":36,"left_children":[1,3,5,7,9,11,13,-1,-1,-1,-1,-1,-1,-1,-1],"loss_changes":[7.3308554E0,9.107562E0,7.4423203E0,1.1825624E1,8.261431E0,4.5433025E0,4.3155727E0,0E0,0E0,0E0,0E0,0E0,0E0,0E0,0E0],"parents":[2147483647,0,0,1,1,2,2,3,3,4,4,5,5,6,6],"right_children":[2,4,6,8,10,12,14,-1,-1,-1,-1,-1,-1,-1,-1],"split_conditions":[1.9480883E0,3.9024782E-1,1.3252645E0,-2.0883236E-2,3.559934E0,-5.097488E-1,-4.1781E-2,-2.0531293E-2,-2.0074776E-1,4.7906145E-2,-2.8921178E-1,-1.0208053E-1,2.0785429E-1,-5.131482E-1,1.9414304E-2],"split_indices":[57,66,81,66,40,40,38,0,0,0,0,0,0,0,0],"split_type":[0,0,0,0,0,0,0,0,0,0,0,0,0,0,0],"sum_hessian":[4.6941653E2,4.295899E2,3.982665E1,2.3346696E2,1.9612294E2,3.5396782E1,4.4298697E0,1.9500325E2,3.8463707E1,1.9033643E2,5.7865114E0,4.293664E0,3.1103117E1,1.3967463E0,3.0331235E0],"tree_param":{"num_deleted":"0","num_feature":"86","num_nodes":"15","size_leaf_vector":"1"}},{"base_weights":[-7.123585E-4,1.4356621E-2,-2.893169E-1,-2.4216076E-2,4.5632958E-1,2.4141645E-2,-6.117407E-2,2.839912E-2,3.2204574E-1],"categories":[],"categories_nodes":[],"categories_segments":[],"categories_sizes":[],"default_left":[0,0,0,0,0,0,0,0,0],"id":37,"left_children":[1,3,-1,5,7,-1,-1,-1,-1],"loss_changes":[6.7917295E0,7.862432E0,0E0,8.002676E0,8.1608515E0,0E0,0E0,0E0,0E0],"parents":[2147483647,0,0,1,1,3,3,4,4],"right_children":[2,4,-1,6,8,-1,-1,-1,-1],"split_conditions":[1.700146E0,1.1092424E0,-2.893169E-1,1.0989074E0,1.1231985E0,2.4141645E-2,-6.117407E-2,2.839912E-2,3.2204574E-1],"split_indices":[81,3,0,20,65,0,0,0,0],"split_type":[0,0,0,0,0,0,0,0,0],"sum_hessian":[4.6574402E2,4.5954324E2,6.200756E0,4.2352573E2,3.6017525E1,2.679661E2,1.5555962E2,2.3436596E1,1.2580928E1],"tree_param":{"num_deleted":"0","num_feature":"86","num_nodes":"9","size_leaf_vector":"1"}},{"base_weights":[-4.2730162E-4,-1.89406E-2,7.522811E-1,1.9653219E-1,-8.235368E-2,-1.6065142E-1,9.9580336E-1,3.5427734E-2,3.2736745E-1,-6.6967234E-2,2.7323289E-2,3.543323E-1,-6.9814414E-2],"categories":[],"categories_nodes":[],"categories_segments":[],"categories_sizes":[],"default_left":[0,0,0,0,0,0,0,0,0,0,0,0,0],"id":38,"left_children":[1,3,5,7,9,-1,11,-1,-1,-1,-1,-1,-1],"loss_changes":[6.4243064E0,6.163887E0,4.0038447E0,7.071518E0,8.530422E0,0E0,2.4731684E0,0E0,0E0,0E0,0E0,0E0,0E0],"parents":[2147483647,0,0,1,1,2,2,3,3,4,4,6,6],"right_children":[2,4,6,8,10,-1,12,-1,-1,-1,-1,-1,-1],"split_conditions":[7.3997364E0,-4.6740717E-1,-5.168772E-1,8.5320336E-1,1.1231985E0,-1.6065142E-1,-1.5106218E-1,3.5427734E-2,3.2736745E-1,-6.6967234E-2,2.7323289E-2,3.543323E-1,-6.9814414E-2],"split_indices":[53,85,55,81,65,0,55,0,0,0,0,0,0],"split_type":[0,0,0,0,0,0,0,0,0,0,0,0,0],"sum_hessian":[4.5899316E2,4.489264E2,1.0066767E1,1.0159957E2,3.473268E2,1.4102312E0,8.656535E0,9.445084E1,7.1487303E0,1.9149608E2,1.5583073E2,7.55549E0,1.1010454E0],"tree_param":{"num_deleted":"0","num_feature":"86","num_nodes":"13","size_leaf_vector":"1"}},{"base_weights":[1.5382754E-3,-4.1607764E-1,3.508716E-2,-5.352172E-1,4.464304E-1,1.832213E-1,-9.431682E-2,-3.0529391E-2,-2.7920267E-1,1.2577716E-1,-5.1048413E-2,-8.86875E-2,3.5873294E-2],"categories":[],"categories_nodes":[],"categories_segments":[],"categories_sizes":[],"default_left":[0,0,0,0,0,0,0,0,0,0,0,0,0],"id":39,"left_children":[1,3,5,7,-1,9,11,-1,-1,-1,-1,-1,-1],"loss_changes":[6.4025187E0,8.505604E0,8.124967E0,5.513221E0,0E0,1.6548798E1,9.784254E0,0E0,0E0,0E0,0E0,0E0,0E0],"parents":[2147483647,0,0,1,1,2,2,3,3,5,5,6,6],"right_children":[2,4,6,8,-1,10,12,-1,-1,-1,-1,-1,-1],"split_conditions":[-7.5964177E-1,3.8369448E0,-1.543322E-1,-9.9417406E-1,4.464304E-1,1.0989074E0,3.7744284E-1,-3.0529391E-2,-2.7920267E-1,1.2577716E-1,-5.1048413E-2,-8.86875E-2,3.5873294E-2],"split_indices":[38,64,45,81,0,20,13,0,0,0,0,0,0],"split_type":[0,0,0,0,0,0,0,0,0,0,0,0,0],"sum_hessian":[4.549365E2,3.2981483E1,4.2195502E2,3.1716017E1,1.2654651E0,1.9654541E2,2.254096E2,1.5730985E1,1.5985031E1,1.1772596E2,7.881944E1,1.15924446E2,1.0948517E2],"tree_param":{"num_deleted":"0","num_feature":"86","num_nodes":"13","size_leaf_vector":"1"}},{"base_weights":[1.0131607E-3,1.4356485E-1,-9.140013E-2,-1.7160356E-1,5.400013E-1,8.845787E-2,-3.4980658E-1,7.490665E-2,-1.0448834E-1,5.27533E-2,3.196553E-1,1.0835563E-2,2.547575E-1,-1.2754868E-1,2.0845066E-1],"categories":[],"categories_nodes":[],"categories_segments":[],"categories_sizes":[],"default_left":[0,0,0,0,0,0,0,0,0,0,0,0,0,0,0],"id":40,"left_children":[1,3,5,7,9,11,13,-1,-1,-1,-1,-1,-1,-1,-1],"loss_changes":[5.928668E0,2.2207878E1,1.2720993E1,7.483644E0,1.4860937E1,6.4111094E0,9.132087E0,0E0,0E0,0E0,0E0,0E0,0E0,0E0,0E0],"parents":[2147483647,0,0,1,1,2,2,3,3,4,4,5,5,6,6],"right_children":[2,4,6,8,10,12,14,-1,-1,-1,-1,-1,-1,-1,-1],"split_conditions":[-5.620145E-1,-1.2123455E0,-4.367338E-1,-8.6159766E-1,2.0050518E-1,6.4966744E-1,3.7735925E0,7.490665E-2,-1.0448834E-1,5.27533E-2,3.196553E-1,1.0835563E-2,2.547575E-1,-1.2754868E-1,2.0845066E-1],"split_indices":[81,81,73,85,42,26,29,0,0,0,0,0,0,0,0],"split_type":[0,0,0,0,0,0,0,0,0,0,0,0,0,0,0],"sum_hessian":[4.4804312E2,1.7600064E2,2.7204248E2,9.836626E1,7.763439E1,1.6078758E2,1.112549E2,2.8942991E1,6.942326E1,4.664578E1,3.0988613E1,1.5141737E2,9.370205E0,1.04322556E2,6.9323397E0],"tree_param":{"num_deleted":"0","num_feature":"86","num_nodes":"15","size_leaf_vector":"1"}},{"base_weights":[3.052941E-3,2.99585E-2,-4.969089E-1,6.177827E-3,6.353945E-1,-6.7823005E-1,3.2118726E-1,1.4444337E-2,-1.0893538E-1,3.315319E-1,-1.357465E-2,2.0077728E-1,-2.4422276E-1,2.3788497E-1,-2.125494E-1],"categories":[],"categories_nodes":[],"categories_segments":[],"categories_sizes":[],"default_left":[0,0,0,0,0,0,0,0,0,0,0,0,0,0,0],"id":41,"left_children":[1,3,5,7,9,11,13,-1,-1,-1,-1,-1,-1,-1,-1],"loss_changes":[5.9155416E0,6.002723E0,3.5491548E0,6.255001E0,5.0878434E0,3.9687033E0,2.870671E0,0E0,0E0,0E0,0E0,0E0,0E0,0E0,0E0],"parents":[2147483647,0,0,1,1,2,2,3,3,4,4,5,5,6,6],"right_children":[2,4,6,8,10,12,14,-1,-1,-1,-1,-1,-1,-1,-1],"split_conditions":[1.9178048E0,1.9847358E0,1.3902425E0,2.9320602E0,-2.8675652E-1,-1.8783742E-1,1.2177784E1,1.4444337E-2,-1.0893538E-1,3.315319E-1,-1.357465E-2,2.0077728E-1,-2.4422276E-1,2.3788497E-1,-2.125494E-1],"split_indices":[4,49,0,50,1,48,39,0,0,0,0,0,0,0,0],"split_type":[0,0,0,0,0,0,0,0,0,0,0,0,0,0,0],"sum_hessian":[4.3765326E2,4.1619568E2,2.1457584E1,4.0143796E2,1.4757711E1,1.770455E1,3.7530344E0,3.612518E2,4.018616E1,8.362874E0,6.394838E0,1.2618045E0,1.6442745E1,2.7314832E0,1.0215513E0],"tree_param":{"num_deleted":"0","num_feature":"86","num_nodes":"15","size_leaf_vector":"1"}},{"base_weights":[2.8719774E-3,1.5518036E-1,-8.4238715E-2,6.4815307E-1,-8.018446E-3,-5.07283E-1,-2.6214896E-2,3.6699336E-2,5.5072856E-1,-2.2306553E-1,4.249412E-2,-2.6186514E-1,2.3924932E-1,9.7705245E-2,-5.1262286E-2],"categories":[],"categories_nodes":[],"categories_segments":[],"categories_sizes":[],"default_left":[0,0,0,0,0,0,0,0,0,0,0,0,0,0,0],"id":42,"left_children":[1,3,5,7,9,11,13,-1,-1,-1,-1,-1,-1,-1,-1],"loss_changes":[5.7831817E0,1.2763886E1,6.7938027E0,2.4413822E1,1.33298855E1,1.6625774E1,1.25233965E1,0E0,0E0,0E0,0E0,0E0,0E0,0E0,0E0],"parents":[2147483647,0,0,1,1,2,2,3,3,4,4,5,5,6,6],"right_children":[2,4,6,8,10,12,14,-1,-1,-1,-1,-1,-1,-1,-1],"split_conditions":[7.9801774E-1,-9.9417406E-1,-6.85161E-1,-1.2715542E0,-5.810063E-1,9.342641E-1,-2.4099906E-1,3.6699336E-2,5.5072856E-1,-2.2306553E-1,4.249412E-2,-2.6186514E-1,2.3924932E-1,9.7705245E-2,-5.1262286E-2],"split_indices":[24,81,13,81,0,84,45,0,0,0,0,0,0,0,0],"split_type":[0,0,0,0,0,0,0,0,0,0,0,0,0,0,0],"sum_hessian":[4.3389938E2,1.5758646E2,2.7631293E2,3.8454834E1,1.1913162E2,3.2393486E1,2.4391943E2,2.741823E1,1.1036604E1,1.947134E1,9.966028E1,2.5562E1,6.831485E0,7.069503E1,1.732244E2],"tree_param":{"num_deleted":"0","num_feature":"86","num_nodes":"15","size_leaf_vector":"1"}},{"base_weights":[3.255612E-3,-2.7544258E-2,3.9520255E-1,4.384401E-2,-2.5078985E-1,-2.6328367E-1,6.8836254E-1,-1.3302709E-2,1.1021269E-1,-1.5186979E-1,7.950528E-2,1.7756453E-1,-2.929388E-1,2.4400748E-1,-1.6932122E-2],"categories":[],"categories_nodes":[],"categories_segments":[],"categories_sizes":[],"default_left":[0,0,0,0,0,0,0,0,0,0,0,0,0,0,0],"id":43,"left_children":[1,3,5,7,9,11,13,-1,-1,-1,-1,-1,-1,-1,-1],"loss_changes":[5.174021E0,6.345559E0,6.2091117E0,8.63319E0,1.2842915E1,6.885764E0,2.0831661E0,0E0,0E0,0E0,0E0,0E0,0E0,0E0,0E0],"parents":[2147483647,0,0,1,1,2,2,3,3,4,4,5,5,6,6],"right_children":[2,4,6,8,10,12,14,-1,-1,-1,-1,-1,-1,-1,-1],"split_conditions":[1.4400467E0,-9.2715316E-2,-1.5146421E0,3.7911624E-1,1.0566835E-1,1.1291943E0,1.9178048E0,-1.3302709E-2,1.1021269E-1,-1.5186979E-1,7.950528E-2,1.7756453E-1,-2.929388E-1,2.4400748E-1,-1.6932122E-2],"split_indices":[13,0,56,3,45,78,4,0,0,0,0,0,0,0,0],"split_type":[0,0,0,0,0,0,0,0,0,0,0,0,0,0,0],"sum_hessian":[4.2669812E2,3.9647238E2,3.0225761E1,3.0101804E2,9.545432E1,9.34261E0,2.0883152E1,2.3722073E2,6.3797314E1,6.3851685E1,3.1602638E1,4.3257403E0,5.01687E0,1.780329E1,3.0798624E0],"tree_param":{"num_deleted":"0","num_feature":"86","num_nodes":"15","size_leaf_vector":"1"}},{"base_weights":[2.7885353E-3,7.4338907E-1,-1.2824826E-2,1.3556943E0,-5.927865E-1,-2.5903004E-1,4.0602233E-2,4.443613E-1,1.0501705E-1,-3.8246456E-1,8.6846516E-2,-2.2024427E-1,-2.2064755E-2,1.7738368E-1,-8.5043935E-3],"categories":[],"categories_nodes":[],"categories_segments":[],"categories_sizes":[],"default_left":[0,0,0,0,0,0,0,0,0,0,0,0,0,0,0],"id":44,"left_children":[1,3,5,7,9,11,13,-1,-1,-1,-1,-1,-1,-1,-1],"loss_changes":[4.895628E0,7.955317E0,5.4669614E0,2.764883E-1,2.440868E0,6.476091E0,1.299131E1,0E0,0E0,0E0,0E0,0E0,0E0,0E0,0E0],"parents":[2147483647,0,0,1,1,2,2,3,3,4,4,5,5,6,6],"right_children":[2,4,6,8,10,12,14,-1,-1,-1,-1,-1,-1,-1,-1],"split_conditions":[-1.3074771E0,8.998411E-1,-1.306629E0,3.636603E-1,1.1291943E0,-9.9822706E-1,-9.5877755E-1,4.443613E-1,1.0501705E-1,-3.8246456E-1,8.6846516E-2,-2.2024427E-1,-2.2064755E-2,1.7738368E-1,-8.5043935E-3],"split_indices":[1,73,81,61,78,56,81,0,0,0,0,0,0,0,0],"split_type":[0,0,0,0,0,0,0,0,0,0,0,0,0,0,0],"sum_hessian":[4.2155322E2,7.741311E0,4.1381192E2,5.2986064E0,2.442705E0,7.3100105E1,3.4071182E2,4.290254E0,1.0083524E0,1.1266708E0,1.3160341E0,1.9694273E1,5.340583E1,3.707041E1,3.036414E2],"tree_param":{"num_deleted":"0","num_feature":"86","num_nodes":"15","size_leaf_vector":"1"}},{"base_weights":[3.4619314E-3,-1.0831706E-1,1.0580659E-1,-1.7303385E-1,4.153392E-1,3.911366E-2,5.5012786E-1,5.049908E-3,-1.4227943E-1,-1.3365851E-1,1.8123747E-1,3.7911333E-2,-8.315505E-2,3.3680186E-1,7.3013544E-2],"categories":[],"categories_nodes":[],"categories_segments":[],"categories_sizes":[],"default_left":[0,0,0,0,0,0,0,0,0,0,0,0,0,0,0],"id":45,"left_children":[1,3,5,7,9,11,13,-1,-1,-1,-1,-1,-1,-1,-1],"loss_changes":[4.813045E0,6.887268E0,6.486266E0,1.0285304E1,3.91194E0,5.3348303E0,4.7471275E0,0E0,0E0,0E0,0E0,0E0,0E0,0E0,0E0],"parents":[2147483647,0,0,1,1,2,2,3,3,4,4,5,5,6,6],"right_children":[2,4,6,8,10,12,14,-1,-1,-1,-1,-1,-1,-1,-1],"split_conditions":[-1.9897386E-1,7.9788166E-1,1.984817E0,-3.8207293E-1,5.374978E-1,1.1737897E-3,-1.6505472E-1,5.049908E-3,-1.4227943E-1,-1.3365851E-1,1.8123747E-1,3.7911333E-2,-8.315505E-2,3.3680186E-1,7.3013544E-2],"split_indices":[43,49,33,0,77,4,0,0,0,0,0,0,0,0,0],"split_type":[0,0,0,0,0,0,0,0,0,0,0,0,0,0,0],"sum_hessian":[4.187195E2,2.0010742E2,2.1861209E2,1.7869298E2,2.1414454E1,1.9102686E2,2.7585234E1,1.10186295E2,6.8506676E1,3.6069057E0,1.7807549E1,1.5019325E2,4.0833603E1,8.6954155E0,1.8889818E1],"tree_param":{"num_deleted":"0","num_feature":"86","num_nodes":"15","size_leaf_vector":"1"}},{"base_weights":[3.3173668E-3,-8.506753E-3,2.8435802E-1,2.4542214E-2,-3.284023E-1,1.5982892E-2,-1.2782484E-1,-2.0554943E-1,8.4368244E-2],"categories":[],"categories_nodes":[],"categories_segments":[],"categories_sizes":[],"default_left":[0,0,0,0,0,0,0,0,0],"id":46,"left_children":[1,3,-1,5,7,-1,-1,-1,-1],"loss_changes":[4.6610203E0,4.3686643E0,0E0,4.875303E0,8.607775E0,0E0,0E0,0E0,0E0],"parents":[2147483647,0,0,1,1,3,3,4,4],"right_children":[2,4,-1,6,8,-1,-1,-1,-1],"split_conditions":[6.288241E0,4.2464665E-1,2.8435802E-1,1.5342165E0,2.4869986E-1,1.5982892E-2,-1.2782484E-1,-2.0554943E-1,8.4368244E-2],"split_indices":[5,55,0,10,41,0,0,0,0],"split_type":[0,0,0,0,0,0,0,0,0],"sum_hessian":[4.1561865E2,4.1145883E2,4.159794E0,3.7376755E2,3.769129E1,3.5219183E2,2.157573E1,2.3698658E1,1.3992635E1],"tree_param":{"num_deleted":"0","num_feature":"86","num_nodes":"9","size_leaf_vector":"1"}},{"base_weights":[2.0060888E-3,-7.110047E-2,1.6256239E-1,-1.6602401E-1,2.9559383E-1,3.7632072E-3,6.0201854E-1,-2.2117842E-2,-1.7260405E-1,1.813443E-1,-5.019637E-2,9.251517E-2,-1.1081946E-1,3.3674404E-2,2.8644687E-1],"categories":[],"categories_nodes":[],"categories_segments":[],"categories_sizes":[],"default_left":[0,0,0,0,0,0,0,0,0,0,0,0,0,0,0],"id":47,"left_children":[1,3,5,7,9,11,13,-1,-1,-1,-1,-1,-1,-1,-1],"loss_changes":[4.8626075E0,9.958088E0,9.0426235E0,8.525188E0,8.522942E0,1.1050725E1,5.836404E0,0E0,0E0,0E0,0E0,0E0,0E0,0E0,0E0],"parents":[2147483647,0,0,1,1,2,2,3,3,4,4,5,5,6,6],"right_children":[2,4,6,8,10,12,14,-1,-1,-1,-1,-1,-1,-1,-1],"split_conditions":[3.7911624E-1,3.7744284E-1,7.7984944E-2,-6.766535E-2,-5.404899E-1,1.1291943E0,-7.321666E-2,-2.2117842E-2,-1.7260405E-1,1.813443E-1,-5.019637E-2,9.251517E-2,-1.1081946E-1,3.3674404E-2,2.8644687E-1],"split_indices":[3,13,59,45,61,78,85,0,0,0,0,0,0,0,0],"split_type":[0,0,0,0,0,0,0,0,0,0,0,0,0,0,0],"sum_hessian":[4.1228723E2,2.8367694E2,1.2861028E2,2.2577852E2,5.789843E1,9.521318E1,3.339709E1,1.851984E2,4.058012E1,3.4543163E1,2.3355268E1,5.251638E1,4.26968E1,1.4536028E1,1.8861065E1],"tree_param":{"num_deleted":"0","num_feature":"86","num_nodes":"15","size_leaf_vector":"1"}},{"base_weights":[2.3398725E-3,-3.3212654E-2,3.303511E-1,-7.203515E-2,3.167246E-1,4.6477705E-1,-3.3754927E-1,-2.6834207E-2,2.71051E-1,1.2756126E-1,-1.7374937E-1,5.1259097E-2,2.8839308E-1],"categories":[],"categories_nodes":[],"categories_segments":[],"categories_sizes":[],"default_left":[0,0,0,0,0,0,0,0,0,0,0,0,0],"id":48,"left_children":[1,3,5,7,9,11,-1,-1,-1,-1,-1,-1,-1],"loss_changes":[4.775602E0,5.0430155E0,8.358179E0,5.7447314E0,3.850613E0,5.2890406E0,0E0,0E0,0E0,0E0,0E0,0E0,0E0],"parents":[2147483647,0,0,1,1,2,2,3,3,4,4,5,5],"right_children":[2,4,6,8,10,12,-1,-1,-1,-1,-1,-1,-1],"split_conditions":[1.2012799E0,4.346083E-1,2.686117E0,5.8573136E0,7.1346414E-1,-3.983204E-1,-3.3754927E-1,-2.6834207E-2,2.71051E-1,1.2756126E-1,-1.7374937E-1,5.1259097E-2,2.8839308E-1],"split_indices":[42,39,85,54,63,25,0,0,0,0,0,0,0],"split_type":[0,0,0,0,0,0,0,0,0,0,0,0,0],"sum_hessian":[4.0757333E2,3.68528E2,3.9045322E1,3.3244077E2,3.6087265E1,3.6367256E1,2.6780653E0,3.275035E2,4.937238E0,3.26582E1,3.429064E0,2.368907E1,1.26781845E1],"tree_param":{"num_deleted":"0","num_feature":"86","num_nodes":"13","size_leaf_vector":"1"}},{"base_weights":[2.713737E-3,1.4032106E-2,-2.6255053E-1,-1.55635E-2,3.8080853E-1,-1.9233867E-3,-3.726857E-1,2.4185221E-1,-7.417464E-3],"categories":[],"categories_nodes":[],"categories_segments":[],"categories_sizes":[],"default_left":[0,0,0,0,0,0,0,0,0],"id":49,"left_children":[1,3,-1,5,7,-1,-1,-1,-1],"loss_changes":[4.0396695E0,4.3603992E0,0E0,4.170341E0,5.1934867E0,0E0,0E0,0E0,0E0],"parents":[2147483647,0,0,1,1,3,3,4,4],"right_children":[2,4,-1,6,8,-1,-1,-1,-1],"split_conditions":[1.700146E0,1.1092424E0,-2.6255053E-1,6.910281E0,-2.0875995E-1,-1.9233867E-3,-3.726857E-1,2.4185221E-1,-7.417464E-3],"split_indices":[81,3,0,61,25,0,0,0,0],"split_type":[0,0,0,0,0,0,0,0,0],"sum_hessian":[4.0432516E2,4.0015012E2,4.175044E0,3.7115848E2,2.8991632E1,3.6940768E2,1.7508153E0,1.366765E1,1.5323981E1],"tree_param":{"num_deleted":"0","num_feature":"86","num_nodes":"9","size_leaf_vector":"1"}},{"base_weights":[9.894447E-4,-3.168826E-2,2.985595E-1,-5.4743633E-2,7.582911E-1,-3.861358E-1,4.011004E-1,-1.062687E-2,-2.6260218E-1,3.315875E-1,-1.7955026E-1,2.3325343E-1,-4.1389614E-2],"categories":[],"categories_nodes":[],"categories_segments":[],"categories_sizes":[],"default_left":[0,0,0,0,0,0,0,0,0,0,0,0,0],"id":50,"left_children":[1,3,5,7,9,-1,11,-1,-1,-1,-1,-1,-1],"loss_changes":[3.9341106E0,6.6816273E0,7.025445E0,5.6000485E0,5.560586E0,0E0,7.891618E0,0E0,0E0,0E0,0E0,0E0,0E0],"parents":[2147483647,0,0,1,1,2,2,3,3,4,4,6,6],"right_children":[2,4,6,8,10,-1,12,-1,-1,-1,-1,-1,-1],"split_conditions":[2.356473E0,3.1567292E0,-3.801113E-1,1.7743325E0,-1.3689403E-1,-3.861358E-1,-2.8675652E-1,-1.062687E-2,-2.6260218E-1,3.315875E-1,-1.7955026E-1,2.3325343E-1,-4.1389614E-2],"split_indices":[6,63,43,63,80,0,1,0,0,0,0,0,0],"split_type":[0,0,0,0,0,0,0,0,0,0,0,0,0],"sum_hessian":[4.0260837E2,3.6357574E2,3.9032623E1,3.5417007E2,9.405672E0,1.6691322E0,3.736349E1,3.470422E2,7.127849E0,7.6376915E0,1.7679803E0,2.1740509E1,1.562298E1],"tree_param":{"num_deleted":"0","num_feature":"86","num_nodes":"13","size_leaf_vector":"1"}},{"base_weights":[5.649567E-4,-1.2360118E-2,7.265627E-1,1.2078793E-1,-8.850937E-2,-6.455441E-2,3.3055818E-1,6.679487E-2,-1.0595395E-1,2.402473E-1,-3.381736E-2],"categories":[],"categories_nodes":[],"categories_segments":[],"categories_sizes":[],"default_left":[0,0,0,0,0,0,0,0,0,0,0],"id":51,"left_children":[1,3,5,7,9,-1,-1,-1,-1,-1,-1],"loss_changes":[3.773072E0,4.016688E0,2.7229152E0,7.039245E0,5.5156403E0,0E0,0E0,0E0,0E0,0E0,0E0],"parents":[2147483647,0,0,1,1,2,2,3,3,4,4],"right_children":[2,4,6,8,10,-1,-1,-1,-1,-1,-1],"split_conditions":[6.978227E0,7.9801774E-1,7.0498204E-1,1.5261703E0,-7.6616603E-1,-6.455441E-2,3.3055818E-1,6.679487E-2,-1.0595395E-1,2.402473E-1,-3.381736E-2],"split_indices":[83,24,66,69,41,0,0,0,0,0,0],"split_type":[0,0,0,0,0,0,0,0,0,0,0],"sum_hessian":[4.0013617E2,3.9410287E2,6.033313E0,1.4317432E2,2.5092854E2,1.8407961E0,4.192517E0,1.18283875E2,2.4890448E1,5.801182E0,2.4512735E2],"tree_param":{"num_deleted":"0","num_feature":"86","num_nodes":"11","size_leaf_vector":"1"}},{"base_weights":[1.8864092E-3,-1.7436357E-2,4.185634E-1,1.4236747E-2,-3.0691347E-1,6.172168E-1,-4.2490137E-1,-1.1044345E-2,9.629839E-2,-1.7685919E-1,9.35039E-2,2.4016763E-1,-9.408646E-2,-3.3324635E-1,2.0057645E-1],"categories":[],"categories_nodes":[],"categories_segments":[],"categories_sizes":[],"default_left":[0,0,0,0,0,0,0,0,0,0,0,0,0,0,0],"id":52,"left_children":[1,3,5,7,9,11,13,-1,-1,-1,-1,-1,-1,-1,-1],"loss_changes":[3.224759E0,3.5147402E0,3.2364566E0,5.431289E0,6.792863E0,2.7725015E0,3.7248101E0,0E0,0E0,0E0,0E0,0E0,0E0,0E0,0E0],"parents":[2147483647,0,0,1,1,2,2,3,3,4,4,5,5,6,6],"right_children":[2,4,6,8,10,12,14,-1,-1,-1,-1,-1,-1,-1,-1],"split_conditions":[1.1979281E0,2.9320602E0,-1.2397537E-1,1.1202413E0,6.830057E-1,1.0989074E0,-1.9449039E-1,-1.1044345E-2,9.629839E-2,-1.7685919E-1,9.35039E-2,2.4016763E-1,-9.408646E-2,-3.3324635E-1,2.0057645E-1],"split_indices":[1,50,63,57,80,20,39,0,0,0,0,0,0,0,0],"split_type":[0,0,0,0,0,0,0,0,0,0,0,0,0,0,0],"sum_hessian":[3.986175E2,3.8186713E2,1.6750359E1,3.4506293E2,3.68042E1,1.377443E1,2.9759278E0,2.9658472E2,4.8478203E1,2.5294752E1,1.1509449E1,1.1624733E1,2.1496978E0,1.8190387E0,1.1568891E0],"tree_param":{"num_deleted":"0","num_feature":"86","num_nodes":"15","size_leaf_vector":"1"}},{"base_weights":[1.4885637E-3,1.2748392E-2,-7.345519E-1,6.683564E-1,2.7815828E-5,-9.6190846E-1,5.9186593E-2,3.482474E-1,-1.0884434E-1,-1.1555652E-2,7.208316E-2,-3.4217003E-1,-6.2110778E-2],"categories":[],"categories_nodes":[],"categories_segments":[],"categories_sizes":[],"default_left":[0,0,0,0,0,0,0,0,0,0,0,0,0],"id":53,"left_children":[1,3,5,7,9,11,-1,-1,-1,-1,-1,-1,-1],"loss_changes":[3.2980757E0,3.2676704E0,1.4600997E0,4.208317E0,3.578048E0,4.368658E-1,0E0,0E0,0E0,0E0,0E0,0E0,0E0],"parents":[2147483647,0,0,1,1,2,2,3,3,4,4,5,5],"right_children":[2,4,6,8,10,12,-1,-1,-1,-1,-1,-1,-1],"split_conditions":[5.2326746E0,-1.3074771E0,-4.206688E-2,8.998411E-1,1.6107852E0,7.7565575E-1,5.9186593E-2,3.482474E-1,-1.0884434E-1,-1.1555652E-2,7.208316E-2,-3.4217003E-1,-6.2110778E-2],"split_indices":[19,1,57,73,73,25,0,0,0,0,0,0,0],"split_type":[0,0,0,0,0,0,0,0,0,0,0,0,0],"sum_hessian":[3.9581885E2,3.9082278E2,4.996064E0,6.4576845E0,3.843651E2,3.9902337E0,1.0058305E0,4.285347E0,2.1723375E0,3.3194592E2,5.2419178E1,2.8134298E0,1.176804E0],"tree_param":{"num_deleted":"0","num_feature":"86","num_nodes":"13","size_leaf_vector":"1"}},{"base_weights":[1.1134758E-3,7.028327E-2,-1.1239588E-1,3.6143042E-2,6.9902384E-1,-2.684747E-1,1.5300351E-1,-6.951557E-3,1.1812084E-1,3.001148E-1,-1.956968E-3,2.3600591E-2,-1.4003731E-1,-1.55669E-1,1.03606395E-1],"categories":[],"categories_nodes":[],"categories_segments":[],"categories_sizes":[],"default_left":[0,0,0,0,0,0,0,0,0,0,0,0,0,0,0],"id":54,"left_children":[1,3,5,7,9,11,13,-1,-1,-1,-1,-1,-1,-1,-1],"loss_changes":[3.115222E0,5.2665424E0,6.264413E0,4.9911857E0,2.6945791E0,6.574567E0,7.4518375E0,0E0,0E0,0E0,0E0,0E0,0E0,0E0,0E0],"parents":[2147483647,0,0,1,1,2,2,3,3,4,4,5,5,6,6],"right_children":[2,4,6,8,10,12,14,-1,-1,-1,-1,-1,-1,-1,-1],"split_conditions":[-1.8079393E-1,9.555127E-1,1.6107852E0,3.1938705E-1,-4.127206E-1,-7.0778394E-1,-5.7934016E-1,-6.951557E-3,1.1812084E-1,3.001148E-1,-1.956968E-3,2.3600591E-2,-1.4003731E-1,-1.55669E-1,1.03606395E-1],"split_indices":[73,26,73,48,82,81,46,0,0,0,0,0,0,0,0],"split_type":[0,0,0,0,0,0,0,0,0,0,0,0,0,0,0],"sum_hessian":[3.947657E2,2.4552788E2,1.4923781E2,2.3388553E2,1.1642357E1,9.396583E1,5.5271988E1,2.0141199E2,3.2473534E1,7.8650804E0,3.7772772E0,3.4383118E1,5.958271E1,1.1923713E1,4.3348274E1],"tree_param":{"num_deleted":"0","num_feature":"86","num_nodes":"15","size_leaf_vector":"1"}},{"base_weights":[1.3300091E-3,-7.7789016E-3,2.564496E-1,4.292856E-2,-1.7481422E-1,8.02719E-3,3.3711824E-1,-1.1603072E-1,6.304826E-2],"categories":[],"categories_nodes":[],"categories_segments":[],"categories_sizes":[],"default_left":[0,0,0,0,0,0,0,0,0],"id":55,"left_children":[1,3,-1,5,7,-1,-1,-1,-1],"loss_changes":[3.0384717E0,3.2840521E0,0E0,5.170646E0,7.448267E0,0E0,0E0,0E0,0E0],"parents":[2147483647,0,0,1,1,3,3,4,4],"right_children":[2,4,-1,6,8,-1,-1,-1,-1],"split_conditions":[3.0339525E0,-3.8460765E-2,2.564496E-1,5.8573136E0,1.7694639E-1,8.02719E-3,3.3711824E-1,-1.1603072E-1,6.304826E-2],"split_indices":[13,0,0,54,57,0,0,0,0],"split_type":[0,0,0,0,0,0,0,0,0],"sum_hessian":[3.8897137E2,3.8584436E2,3.126998E0,2.9655975E2,8.928462E1,2.931976E2,3.3621597E0,5.7578888E1,3.1705734E1],"tree_param":{"num_deleted":"0","num_feature":"86","num_nodes":"9","size_leaf_vector":"1"}},{"base_weights":[2.6910387E-3,-9.669872E-1,1.0555864E-2,-9.948564E-3,-4.4146824E-1,-1.025659E-1,9.393195E-2,1.7607108E-2,-1.2136748E-1,5.859609E-2,-8.94866E-2],"categories":[],"categories_nodes":[],"categories_segments":[],"categories_sizes":[],"default_left":[0,0,0,0,0,0,0,0,0,0,0],"id":56,"left_children":[1,3,5,-1,-1,7,9,-1,-1,-1,-1],"loss_changes":[2.97743E0,1.431236E0,3.6590595E0,0E0,0E0,8.042291E0,8.9371805E0,0E0,0E0,0E0,0E0],"parents":[2147483647,0,0,1,1,2,2,5,5,6,6],"right_children":[2,4,6,-1,-1,8,10,-1,-1,-1,-1],"split_conditions":[-1.3075943E0,2.0050518E-1,-1.3308641E-1,-9.948564E-3,-4.4146824E-1,1.0989074E0,9.7322977E-1,1.7607108E-2,-1.2136748E-1,5.859609E-2,-8.94866E-2],"split_indices":[81,42,42,0,0,20,81,0,0,0,0],"split_type":[0,0,0,0,0,0,0,0,0,0,0],"sum_hessian":[3.8807504E2,2.1411028E0,3.8593393E2,1.1249169E0,1.016186E0,1.6365813E2,2.2227582E2,1.0721415E2,5.6443985E1,1.7701878E2,4.5257034E1],"tree_param":{"num_deleted":"0","num_feature":"86","num_nodes":"11","size_leaf_vector":"1"}},{"base_weights":[-1.2703385E-4,-1.5973014E-1,4.685963E-2,-1.18998714E-1,-5.465678E-1,7.4973756E-1,-8.082955E-3,-8.473298E-2,7.122415E-2,1.9368727E-2,5.0525975E-1,3.8696647E-2,-5.8893073E-2],"categories":[],"categories_nodes":[],"categories_segments":[],"categories_sizes":[],"default_left":[0,0,0,0,0,0,0,0,0,0,0,0,0],"id":57,"left_children":[1,3,5,7,-1,9,11,-1,-1,-1,-1,-1,-1],"loss_changes":[2.8853862E0,5.707756E0,1.1485286E1,5.105171E0,0E0,1.3696512E1,7.1640916E0,0E0,0E0,0E0,0E0,0E0,0E0],"parents":[2147483647,0,0,1,1,2,2,3,3,5,5,6,6],"right_children":[2,4,6,8,-1,10,12,-1,-1,-1,-1,-1,-1],"split_conditions":[-1.2123455E0,-1.223608E0,-9.5877755E-1,8.786648E-1,-5.465678E-1,-3.8828933E-1,-5.404899E-1,-8.473298E-2,7.122415E-2,1.9368727E-2,5.0525975E-1,3.8696647E-2,-5.8893073E-2],"split_indices":[81,81,81,66,0,82,61,0,0,0,0,0,0],"split_type":[0,0,0,0,0,0,0,0,0,0,0,0,0],"sum_hessian":[3.8276022E2,8.650904E1,2.962512E2,8.5485794E1,1.0232437E0,2.0561611E1,2.7568958E2,5.8751106E1,2.6734688E1,1.2479996E1,8.081615E0,1.5970393E2,1.1598564E2],"tree_param":{"num_deleted":"0","num_feature":"86","num_nodes":"13","size_leaf_vector":"1"}},{"base_weights":[3.2254498E-4,-3.0675419E-2,2.569516E-1,-4.4055175E-2,9.1627127E-1,2.8806861E-2,8.28292E-1,5.82814E-3,-7.95161E-2,3.046245E-1,8.679546E-2,-8.341419E-2,2.0068423E-1,2.9332477E-1,-1.0995484E-1],"categories":[],"categories_nodes":[],"categories_segments":[],"categories_sizes":[],"default_left":[0,0,0,0,0,0,0,0,0,0,0,0,0,0,0],"id":58,"left_children":[1,3,5,7,9,11,13,-1,-1,-1,-1,-1,-1,-1,-1],"loss_changes":[3.0453873E0,4.368147E0,5.354018E0,4.7439528E0,4.8890114E-3,6.1810913E0,2.4543524E0,0E0,0E0,0E0,0E0,0E0,0E0,0E0,0E0],"parents":[2147483647,0,0,1,1,2,2,3,3,4,4,5,5,6,6],"right_children":[2,4,6,8,10,12,14,-1,-1,-1,-1,-1,-1,-1,-1],"split_conditions":[2.6647022E0,1.932788E0,-5.65946E-3,7.1516436E-1,6.718423E0,4.4820398E-1,8.540074E-1,5.82814E-3,-7.95161E-2,3.046245E-1,8.679546E-2,-8.341419E-2,2.0068423E-1,2.9332477E-1,-1.0995484E-1],"split_indices":[34,0,25,85,9,66,39,0,0,0,0,0,0,0,0],"split_type":[0,0,0,0,0,0,0,0,0,0,0,0,0,0,0],"sum_hessian":[3.80837E2,3.4057925E2,4.0257755E1,3.3677432E2,3.8049314E0,2.9520285E1,1.0737471E1,2.623312E2,7.444312E1,2.7503927E0,1.0545385E0,2.0337204E1,9.183081E0,9.705134E0,1.0323362E0],"tree_param":{"num_deleted":"0","num_feature":"86","num_nodes":"15","size_leaf_vector":"1"}},{"base_weights":[2.1688298E-3,-3.134354E-2,2.0591493E-1,-1.0687338E-1,1.0352694E-1,4.246843E-1,-4.3435416E-1,-1.1126549E-1,9.100482E-4,9.38511E-2,-5.737648E-2,-4.1528523E-2,2.2138125E-1,-2.587668E-1,5.1927228E-2],"categories":[],"categories_nodes":[],"categories_segments":[],"categories_sizes":[],"default_left":[0,0,0,0,0,0,0,0,0,0,0,0,0,0,0],"id":59,"left_children":[1,3,5,7,9,11,13,-1,-1,-1,-1,-1,-1,-1,-1],"loss_changes":[2.5916314E0,3.3319707E0,7.6937695E0,6.079129E0,7.311955E0,7.239759E0,3.829132E0,0E0,0E0,0E0,0E0,0E0,0E0,0E0,0E0],"parents":[2147483647,0,0,1,1,2,2,3,3,4,4,5,5,6,6],"right_children":[2,4,6,8,10,12,14,-1,-1,-1,-1,-1,-1,-1,-1],"split_conditions":[5.483786E-1,6.4558274E-1,-6.766535E-2,-4.6460846E-1,1.0989074E0,-5.8017653E-1,6.2334925E-2,-1.1126549E-1,9.100482E-4,9.38511E-2,-5.737648E-2,-4.1528523E-2,2.2138125E-1,-2.587668E-1,5.1927228E-2],"split_indices":[1,68,45,80,20,38,45,0,0,0,0,0,0,0,0],"split_type":[0,0,0,0,0,0,0,0,0,0,0,0,0,0,0],"sum_hessian":[3.7761334E2,3.2500272E2,5.261062E1,2.0846579E2,1.1653692E2,3.9463356E1,1.3147266E1,6.0576965E1,1.4788882E2,6.811241E1,4.8424507E1,1.4305492E1,2.5157862E1,7.4650254E0,5.682241E0],"tree_param":{"num_deleted":"0","num_feature":"86","num_nodes":"15","size_leaf_vector":"1"}},{"base_weights":[1.5192996E-3,-1.9917883E-2,3.2610327E-1,2.4786897E-2,-3.006801E-1,9.286713E-1,-9.839453E-3,1.0866594E-2,-3.160453E-1,5.6829244E-2,-2.3826267E-1,3.1426728E-1,1.7948257E-2,-1.04737334E-1,2.0134053E-1],"categories":[],"categories_nodes":[],"categories_segments":[],"categories_sizes":[],"default_left":[0,0,0,0,0,0,0,0,0,0,0,0,0,0,0],"id":60,"left_children":[1,3,5,7,9,11,13,-1,-1,-1,-1,-1,-1,-1,-1],"loss_changes":[2.6250305E0,4.4500666E0,4.7403336E0,3.8143754E0,1.1928663E1,8.025794E-1,3.9299963E0,0E0,0E0,0E0,0E0,0E0,0E0,0E0,0E0],"parents":[2147483647,0,0,1,1,2,2,3,3,4,4,5,5,6,6],"right_children":[2,4,6,8,10,12,14,-1,-1,-1,-1,-1,-1,-1,-1],"split_conditions":[1.4400467E0,4.8033154E-1,-7.321666E-2,2.055075E1,-1.8949743E-1,7.219182E-1,2.7447948E-2,1.0866594E-2,-3.160453E-1,5.6829244E-2,-2.3826267E-1,3.1426728E-1,1.7948257E-2,-1.04737334E-1,2.0134053E-1],"split_indices":[13,4,85,28,47,25,43,0,0,0,0,0,0,0,0],"split_type":[0,0,0,0,0,0,0,0,0,0,0,0,0,0,0],"sum_hessian":[3.7532544E2,3.5295325E2,2.2372198E1,3.0525955E2,4.7693687E1,7.376632E0,1.4995566E1,3.030125E2,2.2470438E0,2.423886E1,2.3454826E1,6.307824E0,1.068808E0,1.0334085E1,4.661481E0],"tree_param":{"num_deleted":"0","num_feature":"86","num_nodes":"15","size_leaf_vector":"1"}},{"base_weights":[1.0541566E-3,-7.250725E-3,2.4965252E-1,3.082142E-1,-1.3863212E-2,-2.0020818E-3,-2.8565004E-1],"categories":[],"categories_nodes":[],"categories_segments":[],"categories_sizes":[],"default_left":[0,0,0,0,0,0,0],"id":61,"left_children":[1,3,-1,-1,5,-1,-1],"loss_changes":[2.5847924E0,2.5517533E0,0E0,0E0,2.4865184E0,0E0,0E0],"parents":[2147483647,0,0,1,1,4,4],"right_children":[2,4,-1,-1,6,-1,-1],"split_conditions":[6.288241E0,-1.5868175E0,2.4965252E-1,3.082142E-1,6.910281E0,-2.0020818E-3,-2.8565004E-1],"split_indices":[5,47,0,0,61,0,0],"split_type":[0,0,0,0,0,0,0],"sum_hessian":[3.7260532E2,3.699004E2,2.704912E0,1.3687419E0,3.6853168E2,3.6672876E2,1.8028905E0],"tree_param":{"num_deleted":"0","num_feature":"86","num_nodes":"7","size_leaf_vector":"1"}},{"base_weights":[1.7310162E-3,9.836777E-3,-2.3532479E-1,-4.3008063E-2,1.5289707E-1,-3.4546725E-2,5.9761044E-2,1.333112E-1,-5.9243005E-2],"categories":[],"categories_nodes":[],"categories_segments":[],"categories_sizes":[],"default_left":[0,0,0,0,0,0,0,0,0],"id":62,"left_children":[1,3,-1,5,7,-1,-1,-1,-1],"loss_changes":[2.384291E0,2.804791E0,0E0,4.7599254E0,1.0306574E1,0E0,0E0,0E0,0E0],"parents":[2147483647,0,0,1,1,3,3,4,4],"right_children":[2,4,-1,6,8,-1,-1,-1,-1],"split_conditions":[1.700146E0,3.7744284E-1,-2.3532479E-1,3.7911624E-1,-2.837943E-1,-3.4546725E-2,5.9761044E-2,1.333112E-1,-5.9243005E-2],"split_indices":[81,13,0,3,25,0,0,0,0],"split_type":[0,0,0,0,0,0,0,0,0],"sum_hessian":[3.7195288E2,3.6913434E2,2.8185632E0,2.7007214E2,9.9062195E1,2.0849283E2,6.1579304E1,5.3929955E1,4.5132244E1],"tree_param":{"num_deleted":"0","num_feature":"86","num_nodes":"9","size_leaf_vector":"1"}},{"base_weights":[8.269694E-4,-2.0818995E-2,3.4833154E-1,4.661058E-2,-1.9371049E-1,6.1150306E-1,-1.253571E-1,-2.0043967E-2,6.392155E-2,-1.05518304E-1,4.3251324E-2,2.2586448E-1,-9.66469E-2,1.9810538E-1,-1.7023465E-1],"categories":[],"categories_nodes":[],"categories_segments":[],"categories_sizes":[],"default_left":[0,0,0,0,0,0,0,0,0,0,0,0,0,0,0],"id":63,"left_children":[1,3,5,7,9,11,13,-1,-1,-1,-1,-1,-1,-1,-1],"loss_changes":[2.7959874E0,4.088686E0,2.7937245E0,4.7827926E0,5.303424E0,2.1144762E0,3.3669116E0,0E0,0E0,0E0,0E0,0E0,0E0,0E0,0E0],"parents":[2147483647,0,0,1,1,2,2,3,3,4,4,5,5,6,6],"right_children":[2,4,6,8,10,12,14,-1,-1,-1,-1,-1,-1,-1,-1],"split_conditions":[2.3751817E0,-1.6505472E-1,1.0525653E-1,-1.0117093E-1,9.0874475E-1,9.189387E-1,-4.2933932E-1,-2.0043967E-2,6.392155E-2,-1.05518304E-1,4.3251324E-2,2.2586448E-1,-9.66469E-2,1.9810538E-1,-1.7023465E-1],"split_indices":[2,0,73,1,13,44,82,0,0,0,0,0,0,0,0],"split_type":[0,0,0,0,0,0,0,0,0,0,0,0,0,0,0],"sum_hessian":[3.6974042E2,3.4894482E2,2.0795588E1,2.5156293E2,9.738188E1,1.3181359E1,7.6142273E0,1.4997275E2,1.01590195E2,6.632342E1,3.1058468E1,1.16160345E1,1.5653245E0,2.5638764E0,5.050351E0],"tree_param":{"num_deleted":"0","num_feature":"86","num_nodes":"15","size_leaf_vector":"1"}},{"base_weights":[1.2104934E-3,-7.485827E-3,7.381462E-1,3.9968975E-3,-6.999234E-1,2.8355935E-1,3.3909243E-2,9.7439485E-3,-8.116747E-2,-2.6172832E-1,2.02294E-2],"categories":[],"categories_nodes":[],"categories_segments":[],"categories_sizes":[],"default_left":[0,0,0,0,0,0,0,0,0,0,0],"id":64,"left_children":[1,3,5,7,9,-1,-1,-1,-1,-1,-1],"loss_changes":[2.3670478E0,2.906395E0,4.5072103E-1,2.8257601E0,8.481293E-1,0E0,0E0,0E0,0E0,0E0,0E0],"parents":[2147483647,0,0,1,1,2,2,3,3,4,4],"right_children":[2,4,6,8,10,-1,-1,-1,-1,-1,-1],"split_conditions":[4.352889E0,1.6480165E0,-2.1702883E-1,8.0296904E-1,-9.690623E-2,2.8355935E-1,3.3909243E-2,9.7439485E-3,-8.116747E-2,-2.6172832E-1,2.02294E-2],"split_indices":[30,81,55,59,46,0,0,0,0,0,0],"split_type":[0,0,0,0,0,0,0,0,0,0,0],"sum_hessian":[3.67491E2,3.6418326E2,3.3077571E0,3.592205E2,4.962743E0,2.1001165E0,1.2076406E0,3.2625574E2,3.296476E1,3.9400709E0,1.0226718E0],"tree_param":{"num_deleted":"0","num_feature":"86","num_nodes":"11","size_leaf_vector":"1"}},{"base_weights":[6.836278E-4,-8.535475E-3,6.1758214E-1,-3.5491306E-2,2.20475E-1,-6.206051E-2,3.062601E-1,-1.542513E-2,1.7145187E-1,1.5269957E-2,2.5352526E-1],"categories":[],"categories_nodes":[],"categories_segments":[],"categories_sizes":[],"default_left":[0,0,0,0,0,0,0,0,0,0,0],"id":65,"left_children":[1,3,5,7,9,-1,-1,-1,-1,-1,-1],"loss_changes":[2.093206E0,2.2468712E0,2.0130317E0,3.1747189E0,4.0173893E0,0E0,0E0,0E0,0E0,0E0,0E0],"parents":[2147483647,0,0,1,1,2,2,3,3,4,4],"right_children":[2,4,6,8,10,-1,-1,-1,-1,-1,-1],"split_conditions":[6.978227E0,2.6647022E0,-1.0117093E-1,1.1913091E0,2.773624E-1,-6.206051E-2,3.062601E-1,-1.542513E-2,1.7145187E-1,1.5269957E-2,2.5352526E-1],"split_indices":[83,34,1,0,25,0,0,0,0,0,0],"split_type":[0,0,0,0,0,0,0,0,0,0,0],"sum_hessian":[3.6612552E2,3.6170624E2,4.419275E0,3.2437097E2,3.7335278E1,1.6116203E0,2.8076544E0,3.1696994E2,7.4010463E0,3.0213974E1,7.1213017E0],"tree_param":{"num_deleted":"0","num_feature":"86","num_nodes":"11","size_leaf_vector":"1"}},{"base_weights":[2.8353666E-3,2.0639617E-2,-2.9638994E-1,1.5507594E-3,4.810304E-1,2.8452864E-1,-6.5090626E-1,1.0221819E-2,-1.0476189E-1,-6.6205926E-2,3.0937248E-1,-1.8989E-1,2.1839277E-1,-2.6311764E-1,3.3509385E-2],"categories":[],"categories_nodes":[],"categories_segments":[],"categories_sizes":[],"default_left":[0,0,0,0,0,0,0,0,0,0,0,0,0,0,0],"id":66,"left_children":[1,3,5,7,9,11,13,-1,-1,-1,-1,-1,-1,-1,-1],"loss_changes":[1.9524484E0,3.0378692E0,4.4240313E0,3.81046E0,5.5409265E0,3.91757E0,2.3548565E0,0E0,0E0,0E0,0E0,0E0,0E0,0E0,0E0],"parents":[2147483647,0,0,1,1,2,2,3,3,4,4,5,5,6,6],"right_children":[2,4,6,8,10,12,14,-1,-1,-1,-1,-1,-1,-1,-1],"split_conditions":[1.5342165E0,1.4069623E0,-4.7234207E-1,5.83332E-1,-1.08405136E-1,-4.9888626E-1,7.2732314E-2,1.0221819E-2,-1.0476189E-1,-6.6205926E-2,3.0937248E-1,-1.8989E-1,2.1839277E-1,-2.6311764E-1,3.3509385E-2],"split_indices":[10,25,1,25,43,55,43,0,0,0,0,0,0,0,0],"split_type":[0,0,0,0,0,0,0,0,0,0,0,0,0,0,0],"sum_hessian":[3.6433783E2,3.447555E2,1.9582327E1,3.3199365E2,1.276185E1,7.4962373E0,1.208609E1,3.046496E2,2.7344057E1,5.871933E0,6.889918E0,2.3033056E0,5.1929317E0,9.205954E0,2.880136E0],"tree_param":{"num_deleted":"0","num_feature":"86","num_nodes":"15","size_leaf_vector":"1"}},{"base_weights":[2.0414386E-3,2.815924E-1,-3.5565135E-3,4.880764E-2,-1.18809834E-1,-4.0069215E-2,6.1922785E-2,5.9554673E-4,-1.5980358E-1],"categories":[],"categories_nodes":[],"categories_segments":[],"categories_sizes":[],"default_left":[0,0,0,0,0,0,0,0,0],"id":67,"left_children":[1,-1,3,5,7,-1,-1,-1,-1],"loss_changes":[1.9114903E0,0E0,2.195191E0,7.2174315E0,5.681429E0,0E0,0E0,0E0,0E0],"parents":[2147483647,0,0,2,2,3,3,4,4],"right_children":[2,-1,4,6,8,-1,-1,-1,-1],"split_conditions":[-1.5868175E0,2.815924E-1,1.1737897E-3,-1.3308641E-1,5.024163E-1,-4.0069215E-2,6.1922785E-2,5.9554673E-4,-1.5980358E-1],"split_indices":[47,0,4,42,41,0,0,0,0],"split_type":[0,0,0,0,0,0,0,0,0],"sum_hessian":[3.6293994E2,1.1660789E0,3.6177386E2,2.4915114E2,1.1262273E2,1.15569855E2,1.3358128E2,8.794857E1,2.4674158E1],"tree_param":{"num_deleted":"0","num_feature":"86","num_nodes":"9","size_leaf_vector":"1"}},{"base_weights":[1.8918499E-3,8.052063E-2,-8.192394E-2,2.4733156E-2,6.907372E-1,9.550249E-1,-1.1258322E-1,2.35857E-2,-2.1900545E-1,4.0961617E-1,9.752471E-2,5.4087926E-2,3.7402716E-1,1.3197937E-2,-9.124188E-2],"categories":[],"categories_nodes":[],"categories_segments":[],"categories_sizes":[],"default_left":[0,0,0,0,0,0,0,0,0,0,0,0,0,0,0],"id":68,"left_children":[1,3,5,7,9,11,13,-1,-1,-1,-1,-1,-1,-1,-1],"loss_changes":[2.3957763E0,6.367786E0,5.702031E0,7.0886064E0,3.422595E0,9.412174E-1,5.1665926E0,0E0,0E0,0E0,0E0,0E0,0E0,0E0,0E0],"parents":[2147483647,0,0,1,1,2,2,3,3,4,4,5,5,6,6],"right_children":[2,4,6,8,10,12,14,-1,-1,-1,-1,-1,-1,-1,-1],"split_conditions":[-1.543322E-1,-5.291072E-2,-5.990911E-1,-1.4209305E-1,7.9801774E-1,-3.1897727E-1,7.252012E-1,2.35857E-2,-2.1900545E-1,4.0961617E-1,9.752471E-2,5.4087926E-2,3.7402716E-1,1.3197937E-2,-9.124188E-2],"split_indices":[45,48,0,48,24,55,36,0,0,0,0,0,0,0,0],"split_type":[0,0,0,0,0,0,0,0,0,0,0,0,0,0,0],"sum_hessian":[3.615279E2,1.8655618E2,1.749717E2,1.7188278E2,1.4673408E1,4.158962E0,1.7081273E2,1.6126501E2,1.061776E1,4.1965294E0,1.0476878E1,1.580296E0,2.5786657E0,9.441178E1,7.6400955E1],"tree_param":{"num_deleted":"0","num_feature":"86","num_nodes":"15","size_leaf_vector":"1"}},{"base_weights":[3.37383E-3,-1.2141183E-2,4.277628E-1,-2.1879647E-2,2.9877397E-1,2.9526937E-1,-2.9688326E-1,-1.614213E-2,5.271015E-2,2.1590313E-1,-2.2918543E-1],"categories":[],"categories_nodes":[],"categories_segments":[],"categories_sizes":[],"default_left":[0,0,0,0,0,0,0,0,0,0,0],"id":69,"left_children":[1,3,5,7,-1,-1,9,-1,-1,-1,-1],"loss_changes":[2.3863254E0,3.4562356E0,5.4464655E0,2.2014456E0,0E0,0E0,3.550698E0,0E0,0E0,0E0,0E0],"parents":[2147483647,0,0,1,1,2,2,3,3,6,6],"right_children":[2,4,6,8,-1,-1,10,-1,-1,-1,-1],"split_conditions":[1.9847358E0,1.2304471E1,-4.1415355E-1,5.483786E-1,2.9877397E-1,2.9526937E-1,-4.6896145E-1,-1.614213E-2,5.271015E-2,2.1590313E-1,-2.2918543E-1],"split_indices":[49,22,25,1,0,0,47,0,0,0,0],"split_type":[0,0,0,0,0,0,0,0,0,0,0],"sum_hessian":[3.606323E2,3.4885025E2,1.1782042E1,3.464813E2,2.3689408E0,6.4617367E0,5.3203044E0,2.9890775E2,4.757355E1,1.5046462E0,3.8156583E0],"tree_param":{"num_deleted":"0","num_feature":"86","num_nodes":"11","size_leaf_vector":"1"}},{"base_weights":[4.857984E-3,7.072651E-2,-8.6420976E-2,1.3117255E-1,-4.6630353E-1,-2.3237094E-1,2.7396467E-1,1.9334624E-2,2.3500565E-1,-3.3307698E-1,4.7121577E-2,-2.1944286E-2,-1.8533649E-1,1.3877527E-1,-1.5674874E-1],"categories":[],"categories_nodes":[],"categories_segments":[],"categories_sizes":[],"default_left":[0,0,0,0,0,0,0,0,0,0,0,0,0,0,0],"id":70,"left_children":[1,3,5,7,9,11,13,-1,-1,-1,-1,-1,-1,-1,-1],"loss_changes":[2.1680648E0,6.8589807E0,8.0148945E0,8.174324E0,8.767124E0,6.5908413E0,6.856693E0,0E0,0E0,0E0,0E0,0E0,0E0,0E0,0E0],"parents":[2147483647,0,0,1,1,2,2,3,3,4,4,5,5,6,6],"right_children":[2,4,6,8,10,12,14,-1,-1,-1,-1,-1,-1,-1,-1],"split_conditions":[3.2097384E-1,5.9225607E-1,1.5758416E-2,9.3365E-1,-1.1099878E-1,1.0387212E0,2.6486652E0,1.9334624E-2,2.3500565E-1,-3.3307698E-1,4.7121577E-2,-2.1944286E-2,-1.8533649E-1,1.3877527E-1,-1.5674874E-1],"split_indices":[85,25,25,81,45,68,76,0,0,0,0,0,0,0,0],"split_type":[0,0,0,0,0,0,0,0,0,0,0,0,0,0,0],"sum_hessian":[3.5858167E2,2.0841258E2,1.5016907E2,1.8800699E2,2.0405605E1,1.0713604E2,4.303303E1,1.7155426E2,1.6452719E1,9.65296E0,1.0752645E1,7.665724E1,3.0478798E1,3.5132156E1,7.9008756E0],"tree_param":{"num_deleted":"0","num_feature":"86","num_nodes":"15","size_leaf_vector":"1"}},{"base_weights":[2.2335737E-3,6.49509E-2,-1.00718796E-1,-4.435085E-2,3.4052315E-1,-5.629617E-1,8.826865E-2,4.834496E-2,-8.392788E-2,2.2477638E-2,2.2661763E-1,1.4358237E-1,-2.0748833E-1,7.607225E-2,-9.773696E-2],"categories":[],"categories_nodes":[],"categories_segments":[],"categories_sizes":[],"default_left":[0,0,0,0,0,0,0,0,0,0,0,0,0,0,0],"id":71,"left_children":[1,3,5,7,9,11,13,-1,-1,-1,-1,-1,-1,-1,-1],"loss_changes":[2.301865E0,6.6873074E0,1.1840157E1,7.7607856E0,6.887971E0,5.5982046E0,6.6988907E0,0E0,0E0,0E0,0E0,0E0,0E0,0E0,0E0],"parents":[2147483647,0,0,1,1,2,2,3,3,4,4,5,5,6,6],"right_children":[2,4,6,8,10,12,14,-1,-1,-1,-1,-1,-1,-1,-1],"split_conditions":[1.0989074E0,-1.8704398E-1,-4.66678E-1,-1.543322E-1,8.4579575E-1,-6.85161E-1,-1.8104702E-1,4.834496E-2,-8.392788E-2,2.2477638E-2,2.2661763E-1,1.4358237E-1,-2.0748833E-1,7.607225E-2,-9.773696E-2],"split_indices":[20,55,42,45,66,13,55,0,0,0,0,0,0,0,0],"split_type":[0,0,0,0,0,0,0,0,0,0,0,0,0,0,0],"sum_hessian":[3.5448392E2,2.2051686E2,1.3396706E2,1.5849225E2,6.2024605E1,3.8303066E1,9.566399E1,8.4790016E1,7.370224E1,3.853514E1,2.3489466E1,3.912343E0,3.4390724E1,6.864591E1,2.7018074E1],"tree_param":{"num_deleted":"0","num_feature":"86","num_nodes":"15","size_leaf_vector":"1"}},{"base_weights":[4.416062E-4,-1.2856924E-2,4.6100235E-1,8.082242E-3,-6.0986644E-1,7.656929E-1,-2.0031784E-1,-8.500477E-2,1.0923458E-2,2.1772628E-1,-3.000126E-1,1.0236435E-1,3.812486E-1],"categories":[],"categories_nodes":[],"categories_segments":[],"categories_sizes":[],"default_left":[0,0,0,0,0,0,0,0,0,0,0,0,0],"id":72,"left_children":[1,3,5,7,9,11,-1,-1,-1,-1,-1,-1,-1],"loss_changes":[2.164148E0,4.2984686E0,3.921616E0,2.7579927E0,6.797517E0,1.3405428E0,0E0,0E0,0E0,0E0,0E0,0E0,0E0],"parents":[2147483647,0,0,1,1,2,2,3,3,4,4,5,5],"right_children":[2,4,6,8,10,12,-1,-1,-1,-1,-1,-1,-1],"split_conditions":[3.1567292E0,1.5206695E0,-1.2952967E-1,-6.85161E-1,-6.5792763E-1,-3.0698332E-1,-2.0031784E-1,-8.500477E-2,1.0923458E-2,2.1772628E-1,-3.000126E-1,1.0236435E-1,3.812486E-1],"split_indices":[63,63,80,13,1,55,0,0,0,0,0,0,0],"split_type":[0,0,0,0,0,0,0,0,0,0,0,0,0],"sum_hessian":[3.513752E2,3.4245892E2,8.916297E0,3.3180774E2,1.065117E1,7.274296E0,1.6420012E0,2.859906E1,3.0320868E2,2.213614E0,8.437556E0,4.8631544E0,2.4111416E0],"tree_param":{"num_deleted":"0","num_feature":"86","num_nodes":"13","size_leaf_vector":"1"}},{"base_weights":[4.1093898E-4,1.3914829E-2,-4.2957568E-1,-3.298442E-2,1.480704E-1,4.2365447E-2,-8.1118745E-1,1.722985E-2,-5.8057297E-2,-1.8122679E-2,1.3558723E-1,-1.8498908E-1,1.7190497E-1,-1.892144E-2,-2.940656E-1],"categories":[],"categories_nodes":[],"categories_segments":[],"categories_sizes":[],"default_left":[0,0,0,0,0,0,0,0,0,0,0,0,0,0,0],"id":73,"left_children":[1,3,5,7,9,11,13,-1,-1,-1,-1,-1,-1,-1,-1],"loss_changes":[2.0445814E0,2.1527064E0,1.9653382E0,3.6945965E0,5.640992E0,2.3619697E0,6.9410443E-1,0E0,0E0,0E0,0E0,0E0,0E0,0E0,0E0],"parents":[2147483647,0,0,1,1,2,2,3,3,4,4,5,5,6,6],"right_children":[2,4,6,8,10,12,14,-1,-1,-1,-1,-1,-1,-1,-1],"split_conditions":[2.3969626E0,3.7744284E-1,-2.587331E-1,1.0989074E0,1.1231985E0,-5.0042164E-1,-3.9096478E-1,1.722985E-2,-5.8057297E-2,-1.8122679E-2,1.3558723E-1,-1.8498908E-1,1.7190497E-1,-1.892144E-2,-2.940656E-1],"split_indices":[4,13,41,20,65,44,80,0,0,0,0,0,0,0,0],"split_type":[0,0,0,0,0,0,0,0,0,0,0,0,0,0,0],"sum_hessian":[3.5009048E2,3.403687E2,9.721767E0,2.5276064E2,8.7608086E1,4.743921E0,4.977847E0,1.6210446E2,9.065617E1,5.2435993E1,3.5172096E1,2.0437894E0,2.7001314E0,1.1704928E0,3.8073542E0],"tree_param":{"num_deleted":"0","num_feature":"86","num_nodes":"15","size_leaf_vector":"1"}},{"base_weights":[-7.066019E-4,1.8916842E-1,-3.4261882E-2,-2.7234029E-2,6.892945E-1,-1.1295904E-1,1.2018065E-1,9.818744E-2,-1.538184E-1,2.7698144E-1,-1.0073506E-1,-1.4465502E-2,-3.163793E-1,-3.1276476E-2,1.1221413E-1],"categories":[],"categories_nodes":[],"categories_segments":[],"categories_sizes":[],"default_left":[0,0,0,0,0,0,0,0,0,0,0,0,0,0,0],"id":74,"left_children":[1,3,5,7,9,11,13,-1,-1,-1,-1,-1,-1,-1,-1],"loss_changes":[2.225038E0,5.6951838E0,3.6204772E0,6.63439E0,4.1183248E0,1.1965094E1,5.7741323E0,0E0,0E0,0E0,0E0,0E0,0E0,0E0,0E0],"parents":[2147483647,0,0,1,1,2,2,3,3,4,4,5,5,6,6],"right_children":[2,4,6,8,10,12,14,-1,-1,-1,-1,-1,-1,-1,-1],"split_conditions":[-8.6159766E-1,1.2235708E0,-3.0680978E-1,-1.5847774E-2,6.612043E-1,-3.4295925E-1,2.0050518E-1,9.818744E-2,-1.538184E-1,2.7698144E-1,-1.0073506E-1,-1.4465502E-2,-3.163793E-1,-3.1276476E-2,1.1221413E-1],"split_indices":[85,68,82,56,46,82,42,0,0,0,0,0,0,0,0],"split_type":[0,0,0,0,0,0,0,0,0,0,0,0,0,0,0],"sum_hessian":[3.4721045E2,5.1448395E1,2.9576205E2,3.657018E1,1.4878218E1,1.9610442E2,9.965763E1,2.1324272E1,1.5245907E1,1.2194178E1,2.6840394E0,1.8447253E2,1.1631878E1,5.320768E1,4.6449947E1],"tree_param":{"num_deleted":"0","num_feature":"86","num_nodes":"15","size_leaf_vector":"1"}},{"base_weights":[-7.021516E-4,7.139078E-2,-7.630903E-2,1.1168246E-1,-6.538649E-1,-1.8199304E-1,1.5424086E-1,-1.4854965E-1,4.9100157E-2,-3.165245E-1,2.0394021E-1,-1.1053152E-1,2.198849E-2,-2.0157844E-1,7.535062E-2],"categories":[],"categories_nodes":[],"categories_segments":[],"categories_sizes":[],"default_left":[0,0,0,0,0,0,0,0,0,0,0,0,0,0,0],"id":75,"left_children":[1,3,5,7,9,11,13,-1,-1,-1,-1,-1,-1,-1,-1],"loss_changes":[1.8865231E0,5.2503853E0,4.144147E0,5.4031153E0,5.784968E0,5.5621767E0,4.4641247E0,0E0,0E0,0E0,0E0,0E0,0E0,0E0,0E0],"parents":[2147483647,0,0,1,1,2,2,3,3,4,4,5,5,6,6],"right_children":[2,4,6,8,10,12,14,-1,-1,-1,-1,-1,-1,-1,-1],"split_conditions":[-1.543322E-1,1.5035454E0,1.5758416E-2,-1.108719E0,2.6486652E0,3.7744284E-1,-6.6548914E-1,-1.4854965E-1,4.9100157E-2,-3.165245E-1,2.0394021E-1,-1.1053152E-1,2.198849E-2,-2.0157844E-1,7.535062E-2],"split_indices":[45,85,25,44,76,13,46,0,0,0,0,0,0,0,0],"split_type":[0,0,0,0,0,0,0,0,0,0,0,0,0,0,0],"sum_hessian":[3.441057E2,1.7617473E2,1.6793097E2,1.6770393E2,8.470806E0,1.1529184E2,5.2639133E1,1.2559885E1,1.5514404E2,6.672387E0,1.7984186E0,6.6373695E1,4.8918144E1,4.9043593E0,4.773477E1],"tree_param":{"num_deleted":"0","num_feature":"86","num_nodes":"15","size_leaf_vector":"1"}},{"base_weights":[-2.3039002E-3,9.4544785E-3,-4.9674067E-1,3.474439E-2,-2.3338094E-1,-9.428089E-1,3.3155414E-1,2.465237E-3,1.2819174E-1,4.731348E-2,-1.7092189E-1,-3.9310988E-2,-3.7158942E-1,2.0590055E-1,-7.7476025E-2],"categories":[],"categories_nodes":[],"categories_segments":[],"categories_sizes":[],"default_left":[0,0,0,0,0,0,0,0,0,0,0,0,0,0,0],"id":76,"left_children":[1,3,5,7,9,11,13,-1,-1,-1,-1,-1,-1,-1,-1],"loss_changes":[1.9986858E0,2.0715258E0,3.2631044E0,3.174365E0,4.27578E0,1.1466017E0,9.1697043E-1,0E0,0E0,0E0,0E0,0E0,0E0,0E0,0E0],"parents":[2147483647,0,0,1,1,2,2,3,3,4,4,5,5,6,6],"right_children":[2,4,6,8,10,12,14,-1,-1,-1,-1,-1,-1,-1,-1],"split_conditions":[4.464308E0,8.0296904E-1,-3.1486627E-1,8.2675695E-1,1.598326E-1,-7.500935E-1,1.3244703E0,2.465237E-3,1.2819174E-1,4.731348E-2,-1.7092189E-1,-3.9310988E-2,-3.7158942E-1,2.0590055E-1,-7.7476025E-2],"split_indices":[40,59,80,1,47,66,44,0,0,0,0,0,0,0,0],"split_type":[0,0,0,0,0,0,0,0,0,0,0,0,0,0,0],"sum_hessian":[3.419767E2,3.3499106E2,6.985665E0,3.0417038E2,3.0820673E1,4.4505963E0,2.5350683E0,2.858737E2,1.8296688E1,1.4496433E1,1.632424E1,1.5740821E0,2.8765144E0,1.4807239E0,1.0543445E0],"tree_param":{"num_deleted":"0","num_feature":"86","num_nodes":"15","size_leaf_vector":"1"}},{"base_weights":[-2.750483E-3,-9.924379E-3,2.3179924E-1,3.006168E-2,-1.4885569E-1,4.724835E-3,3.0887592E-1,1.5708646E-2,-1.3496189E-1],"categories":[],"categories_nodes":[],"categories_segments":[],"categories_sizes":[],"default_left":[0,0,0,0,0,0,0,0,0],"id":77,"left_children":[1,3,-1,5,7,-1,-1,-1,-1],"loss_changes":[1.9071643E0,1.8895302E0,0E0,3.7650142E0,4.627081E0,0E0,0E0,0E0,0E0],"parents":[2147483647,0,0,1,1,3,3,4,4],"right_children":[2,4,-1,6,8,-1,-1,-1,-1],"split_conditions":[6.288241E0,-3.8460765E-2,2.3179924E-1,5.8573136E0,-5.756186E-2,4.724835E-3,3.0887592E-1,1.5708646E-2,-1.3496189E-1],"split_indices":[5,0,0,54,40,0,0,0,0],"split_type":[0,0,0,0,0,0,0,0,0],"sum_hessian":[3.404675E2,3.3832462E2,2.1428735E0,2.633213E2,7.5003334E1,2.606054E2,2.715862E0,4.5448742E1,2.9554592E1],"tree_param":{"num_deleted":"0","num_feature":"86","num_nodes":"9","size_leaf_vector":"1"}},{"base_weights":[-4.6904743E-4,-2.382251E-2,2.191493E-1,-1.6154318E-1,3.0969538E-2,3.213048E-1,-2.6967052E-1,-7.0447244E-2,1.8333668E-1,2.7957225E-2,-9.8583005E-2,1.8593708E-1,5.646281E-3],"categories":[],"categories_nodes":[],"categories_segments":[],"categories_sizes":[],"default_left":[0,0,0,0,0,0,0,0,0,0,0,0,0],"id":78,"left_children":[1,3,5,7,9,11,-1,-1,-1,-1,-1,-1,-1],"loss_changes":[1.7521392E0,2.3349853E0,4.039158E0,5.1285725E0,4.9914694E0,2.7712898E0,0E0,0E0,0E0,0E0,0E0,0E0,0E0],"parents":[2147483647,0,0,1,1,2,2,3,3,4,4,5,5],"right_children":[2,4,6,8,10,12,-1,-1,-1,-1,-1,-1,-1],"split_conditions":[1.2012799E0,-4.6829063E-1,2.686117E0,1.1093549E0,1.956099E-1,-6.766535E-2,-2.6967052E-1,-7.0447244E-2,1.8333668E-1,2.7957225E-2,-9.8583005E-2,1.8593708E-1,5.646281E-3],"split_indices":[42,80,85,85,63,45,0,0,0,0,0,0,0],"split_type":[0,0,0,0,0,0,0,0,0,0,0,0,0],"sum_hessian":[3.3960632E2,3.077706E2,3.1835745E1,8.704168E1,2.2072891E2,2.982342E1,2.0123239E0,8.013739E1,6.9042873E0,1.8880002E2,3.1928894E1,1.4482931E1,1.5340489E1],"tree_param":{"num_deleted":"0","num_feature":"86","num_nodes":"13","size_leaf_vector":"1"}},{"base_weights":[-6.121791E-4,9.58247E-2,-5.3572163E-2,1.1447867E0,4.802596E-2,-4.053313E-1,-7.413846E-3,3.4412965E-2,5.6733847E-1,1.0493237E-1,-3.172808E-2,-2.0986773E-1,2.1098168E-1,2.271278E-1,-2.0665046E-2],"categories":[],"categories_nodes":[],"categories_segments":[],"categories_sizes":[],"default_left":[0,0,0,0,0,0,0,0,0,0,0,0,0,0,0],"id":79,"left_children":[1,3,5,7,9,11,13,-1,-1,-1,-1,-1,-1,-1,-1],"loss_changes":[1.7389807E0,5.996959E0,3.5654984E0,3.793579E0,5.442518E0,8.80177E0,9.23032E0,0E0,0E0,0E0,0E0,0E0,0E0,0E0,0E0],"parents":[2147483647,0,0,1,1,2,2,3,3,4,4,5,5,6,6],"right_children":[2,4,6,8,10,12,14,-1,-1,-1,-1,-1,-1,-1,-1],"split_conditions":[7.9801774E-1,-6.85161E-1,-6.85161E-1,-3.4296513E-1,-6.0960346E-1,9.342641E-1,-6.533457E-1,3.4412965E-2,5.6733847E-1,1.0493237E-1,-3.172808E-2,-2.0986773E-1,2.1098168E-1,2.271278E-1,-2.0665046E-2],"split_indices":[24,13,13,55,66,84,0,0,0,0,0,0,0,0,0],"split_type":[0,0,0,0,0,0,0,0,0,0,0,0,0,0,0],"sum_hessian":[3.3848438E2,1.19703064E2,2.1878131E2,4.2166605E0,1.15486404E2,2.4475939E1,1.9430537E2,2.2562926E0,1.9603679E0,3.855738E1,7.6929016E1,1.9633978E1,4.8419623E0,1.3618139E1,1.8068723E2],"tree_param":{"num_deleted":"0","num_feature":"86","num_nodes":"15","size_leaf_vector":"1"}},{"base_weights":[1.5600778E-3,-4.657306E-2,1.1293191E-1,-6.9638655E-2,6.240319E-1,8.662932E-1,2.2211192E-2,-2.4776172E-2,2.8841946E-1,2.8162816E-1,-2.092833E-2,3.585494E-1,-1.8398158E-2,-1.5560772E-2,2.9099223E-1],"categories":[],"categories_nodes":[],"categories_segments":[],"categories_sizes":[],"default_left":[0,0,0,0,0,0,0,0,0,0,0,0,0,0,0],"id":80,"left_children":[1,3,5,7,9,11,13,-1,-1,-1,-1,-1,-1,-1,-1],"loss_changes":[1.809014E0,3.6884542E0,6.940364E0,3.1328242E0,1.7983837E0,3.40409E0,6.5034876E0,0E0,0E0,0E0,0E0,0E0,0E0,0E0,0E0],"parents":[2147483647,0,0,1,1,2,2,3,3,4,4,5,5,6,6],"right_children":[2,4,6,8,10,12,14,-1,-1,-1,-1,-1,-1,-1,-1],"split_conditions":[3.7911624E-1,1.9847358E0,-2.9278043E-1,5.8573136E0,6.514003E-1,-9.76174E-2,1.2635658E0,-2.4776172E-2,2.8841946E-1,2.8162816E-1,-2.092833E-2,3.585494E-1,-1.8398158E-2,-1.5560772E-2,2.9099223E-1],"split_indices":[3,49,48,54,56,80,41,0,0,0,0,0,0,0,0],"split_type":[0,0,0,0,0,0,0,0,0,0,0,0,0,0,0],"sum_hessian":[3.3547894E2,2.3464912E2,1.008298E2,2.2771304E2,6.9360805E0,9.918207E0,9.09116E1,2.257972E2,1.9158422E0,4.528645E0,2.4074354E0,7.109308E0,2.808899E0,8.519753E1,5.7140627E0],"tree_param":{"num_deleted":"0","num_feature":"86","num_nodes":"15","size_leaf_vector":"1"}},{"base_weights":[5.468413E-3,-7.47267E-1,1.2538719E-2,1.3894158E-2,-3.593888E-1,7.6276E-2,-7.779844E-2,-2.2953194E-2,7.746598E-2,-8.226161E-2,2.808231E-2],"categories":[],"categories_nodes":[],"categories_segments":[],"categories_sizes":[],"default_left":[0,0,0,0,0,0,0,0,0,0,0],"id":81,"left_children":[1,3,5,-1,-1,7,9,-1,-1,-1,-1],"loss_changes":[1.7864048E0,1.1726702E0,1.9162468E0,0E0,0E0,5.4413776E0,4.6628513E0,0E0,0E0,0E0,0E0],"parents":[2147483647,0,0,1,1,2,2,5,5,6,6],"right_children":[2,4,6,-1,-1,8,10,-1,-1,-1,-1],"split_conditions":[-1.3075943E0,-2.769985E-1,3.2097384E-1,1.3894158E-2,-3.593888E-1,-3.4186897E-1,9.342641E-1,-2.2953194E-2,7.746598E-2,-8.226161E-2,2.808231E-2],"split_indices":[81,55,85,0,0,80,84,0,0,0,0],"split_type":[0,0,0,0,0,0,0,0,0,0,0],"sum_hessian":[3.3289923E2,2.123573E0,3.3077567E2,1.0941837E0,1.0293894E0,1.9403215E2,1.3674352E2,1.0578181E2,8.825034E1,6.3444942E1,7.329857E1],"tree_param":{"num_deleted":"0","num_feature":"86","num_nodes":"11","size_leaf_vector":"1"}},{"base_weights":[2.6119084E-3,1.1814589E-2,-5.707567E-1,1.9305268E-2,-6.2112385E-1,-4.0178346E-3,-2.3057751E-1,-9.153767E-4,7.030948E-2,-2.3008017E-1,-3.9449237E-2],"categories":[],"categories_nodes":[],"categories_segments":[],"categories_sizes":[],"default_left":[0,0,0,0,0,0,0,0,0,0,0],"id":82,"left_children":[1,3,5,7,9,-1,-1,-1,-1,-1,-1],"loss_changes":[1.7527342E0,1.5606858E0,5.683123E-1,1.5575391E0,1.7406511E-1,0E0,0E0,0E0,0E0,0E0,0E0],"parents":[2147483647,0,0,1,1,2,2,3,3,4,4],"right_children":[2,4,6,8,10,-1,-1,-1,-1,-1,-1],"split_conditions":[5.2326746E0,1.680517E0,-2.4331927E-2,2.356473E0,-5.0042164E-1,-4.0178346E-3,-2.3057751E-1,-9.153767E-4,7.030948E-2,-2.3008017E-1,-3.9449237E-2],"split_indices":[19,81,45,6,44,0,0,0,0,0,0],"split_type":[0,0,0,0,0,0,0,0,0,0,0],"sum_hessian":[3.298977E2,3.2565033E2,4.2473583E0,3.227996E2,2.8507593E0,1.3923538E0,2.8550045E0,2.9329584E2,2.950375E1,1.7602069E0,1.0905524E0],"tree_param":{"num_deleted":"0","num_feature":"86","num_nodes":"11","size_leaf_vector":"1"}},{"base_weights":[4.057797E-4,-5.92729E-2,7.9433165E-2,5.054369E-2,-2.9850668E-1,1.0446651E-1,-8.1277686E-1,-6.5308064E-2,4.2426307E-2,6.018112E-2,-1.6925539E-1,9.741169E-4,1.0227586E-1,-3.294653E-1,-3.870539E-2],"categories":[],"categories_nodes":[],"categories_segments":[],"categories_sizes":[],"default_left":[0,0,0,0,0,0,0,0,0,0,0,0,0,0,0],"id":83,"left_children":[1,3,5,7,9,11,13,-1,-1,-1,-1,-1,-1,-1,-1],"loss_changes":[1.5609277E0,4.9692197E0,3.2653623E0,3.2021818E0,7.999376E0,3.335184E0,6.3904023E-1,0E0,0E0,0E0,0E0,0E0,0E0,0E0,0E0],"parents":[2147483647,0,0,1,1,2,2,3,3,4,4,5,5,6,6],"right_children":[2,4,6,8,10,12,14,-1,-1,-1,-1,-1,-1,-1,-1],"split_conditions":[3.9024782E-1,-6.4974344E-1,4.0121207E0,-1.0569224E0,-7.2001183E-1,8.4414646E-2,-3.1486627E-1,-6.5308064E-2,4.2426307E-2,6.018112E-2,-1.6925539E-1,9.741169E-4,1.0227586E-1,-3.294653E-1,-3.870539E-2],"split_indices":[66,66,40,81,81,1,80,0,0,0,0,0,0,0,0],"split_type":[0,0,0,0,0,0,0,0,0,0,0,0,0,0,0],"sum_hessian":[3.289697E2,1.8757196E2,1.4139772E2,1.2909953E2,5.8472427E1,1.3839752E2,3.000202E0,3.2316723E1,9.6782814E1,2.0397678E1,3.807475E1,9.762186E1,4.0775673E1,1.688977E0,1.311225E0],"tree_param":{"num_deleted":"0","num_feature":"86","num_nodes":"15","size_leaf_vector":"1"}},{"base_weights":[-1.6146628E-3,4.1340478E-2,-1.07944876E-1,1.6905159E-1,-7.7110596E-2,-3.6211634E-1,1.6633122E-1,1.17464565E-1,-6.292753E-2,-3.296946E-3,-2.665596E-1,-5.1994827E-2,-2.6932266E-1,1.5706362E-1,-6.710974E-2],"categories":[],"categories_nodes":[],"categories_segments":[],"categories_sizes":[],"default_left":[0,0,0,0,0,0,0,0,0,0,0,0,0,0,0],"id":84,"left_children":[1,3,5,7,9,11,13,-1,-1,-1,-1,-1,-1,-1,-1],"loss_changes":[1.5006077E0,3.5534406E0,